72541 300
cid__id -0.14072497 0.22112451 0.118455574 0.1586816 0.031774227 -0.19529675 0.2799945 0.5545213 0.045733638 -0.093457006 0.34317705 -0.14602135 -0.19326423 0.18905377 -0.118328005 -0.07638832 0.06802487 0.1283726 -0.020914592 -0.21890755 -0.022966903 -0.20006646 0.14846566 0.3567746 0.023322638 -0.042866353 -0.4702775 0.36778572 -0.12137971 -0.5460159 0.14633562 -0.34702328 0.16320656 -0.1685284 -0.1506978 -0.12683259 0.28097364 -0.4880896 0.09272632 -0.048539456 -0.3265885 0.06732916 0.16115965 -0.031216009 -0.05177091 0.024221957 -0.10692661 0.025005933 -0.09505452 0.18355465 0.3435465 0.32713592 -0.042095557 -0.05738543 -0.04082039 0.03628927 0.14134274 -0.18001331 -0.11499575 0.06732381 0.09367306 0.12710018 -0.085405126 -0.08941514 0.076960124 0.24752204 -0.023945162 0.2419574 -0.20850657 0.19268414 0.05857625 0.20596829 0.18343778 -0.50974673 0.099203825 0.16696803 -0.13634361 0.048793793 -0.21927783 -0.23859364 -0.23061241 0.11726976 -0.1442489 0.4230864 -0.028484087 -0.0047701336 0.2436806 -0.13052438 0.07767382 0.15032862 0.13612863 -0.024186004 -0.017428195 -0.12486064 0.06334392 0.28620076 -0.23224322 -0.14346553 0.040457476 0.11346975 -0.15794921 0.29028827 0.07464672 0.08616799 -0.17853712 0.0013875007 0.049753454 0.14596032 0.019640915 -0.11256744 -0.21620646 -0.32207167 0.03951858 0.06674446 0.24830684 0.09888406 0.0089704115 0.30167648 -0.20096174 -0.18666522 0.21181567 -0.021383822 0.30321765 -0.0025491947 0.048498254 0.03114492 -0.018106118 -0.047846343 -0.083160706 0.28744948 0.092784025 0.04897633 -0.15603642 -0.12162946 -0.021958228 0.16299252 -0.01907005 0.1314838 0.24299698 -0.005074173 0.1137711 -0.1453997 0.051904082 0.059020568 0.102010936 -0.043775715 0.14011334 0.050704516 -0.08568276 0.006952132 0.0029471938 -0.14225325 -0.13010235 0.034710754 0.012756555 0.046184435 0.14741886 0.2989956 0.099661514 0.17984115 -0.24479824 -0.08164834 -0.103886515 -0.08241682 0.10440276 0.056093868 0.13707513 -0.07983208 -0.037291154 0.08288462 0.04834964 -0.097121574 -0.02765188 0.07388841 0.069196396 -0.26841816 -0.10982756 -0.12760785 0.26207006 -0.07872391 -0.23587206 0.074583575 0.0046778657 -0.043844048 -0.031200456 0.0022461736 -0.09514652 0.14390127 0.26399317 -0.113427475 0.09709596 0.019315371 -0.09421823 -0.3266636 0.121770896 0.06325392 0.09496129 -0.08364457 -0.20365103 0.03787837 0.14878958 0.022182124 -0.1523641 0.08692722 0.0051370696 0.18420027 -0.03952132 0.1349898 -0.08242676 0.06870712 -0.15392724 0.021113034 -0.012684262 -0.030090414 0.06666093 -0.09915487 0.10990797 0.2873556 -0.033133496 -0.11173817 0.066880904 -0.10333423 -0.009733003 0.009754504 -0.002891257 0.015084528 -0.069906615 0.21517605 0.039759476 -0.20568204 0.010317314 -0.141163 -0.11371422 -0.13555938 -0.026184088 0.07241721 -0.0969937 0.06173005 0.019945476 0.021324394 -0.10858739 0.09332052 0.040660873 0.3179865 0.11537349 0.07690288 -0.06623645 0.06818665 -0.076218754 0.091784894 -0.021837613 -0.08935813 0.0109649 0.03936156 -0.07043177 -0.2422175 -0.15384778 -0.006988919 -0.08035902 0.081830524 0.08506067 -0.06147115 0.07351137 0.015144919 0.0893372 0.11740634 0.15532106 -0.0016344395 -0.15978423 -0.09856416 0.049783006 0.23220748 0.07680827 0.071715176 -0.19145702 0.13660239 0.143112 -0.086504154 -0.10326602 -0.059245136 0.059906557 -0.15969802 -0.1649347 0.019151796 0.098863535 0.10118166 0.14677456 -0.28578097 0.1621093 0.07725848 -0.07534612 -0.23812568 -0.13912266 -0.33240747 -0.16399208 0.01571518 -0.08695703 -0.008728868 -0.010256651 -0.05649022
cid__name -0.2121717 0.34650245 -0.057916738 0.12595409 0.19597092 -0.38118878 0.34444398 0.59103286 0.32718894 -0.019708639 0.40758827 -0.19725785 -0.008821899 -0.20766163 0.013933171 0.0015160644 0.13106064 -0.15165901 -0.24714291 0.2938073 0.05957369 -0.0709017 -0.03153434 0.41561824 -0.3790018 0.019014709 -0.14907575 0.23822226 0.06993897 -0.29007956 0.017775036 -0.32389444 0.12051626 -0.12566678 0.14665525 0.2313097 0.07586871 -0.27684504 -0.19120781 0.2526308 -0.09693718 -0.1238633 0.34818733 0.1004462 0.33230352 0.15107933 -0.066844955 -0.20098585 -0.14447755 -0.18408783 0.14789434 0.24937534 -0.20705187 0.006511118 -0.15478313 -0.046803925 0.19494556 0.3017636 0.07642514 -0.005159669 -0.08771651 0.20611942 0.083129965 -0.013507802 0.07544757 0.029694883 -0.006954582 0.2757755 -0.15816338 0.06417112 -0.14294258 0.09292339 0.026388546 0.0013360588 0.23001039 -0.027474781 -0.12751241 0.03698675 -0.11250003 0.015023481 -0.2128783 -0.08398722 -0.16655579 0.221249 0.14016469 -0.008439684 0.17968081 0.12884575 0.17592023 0.080756046 0.05829722 -0.1952494 -0.015401606 -0.03965397 -0.05148448 0.13778017 -0.31382614 -0.042651866 -0.09623184 -0.08187386 -0.055529892 -0.108446434 -0.25739494 0.12209991 -0.2252958 0.06539535 -0.20169853 0.1354649 -0.042540807 0.040244136 -0.16929828 -0.045531746 -0.14985411 0.08615747 -0.112114586 0.053310495 -0.27587426 0.15330121 0.18407583 0.06223464 0.051632192 0.026287213 0.2113742 0.08613787 0.13064486 -0.16136712 0.10847333 0.12215202 -0.11176788 0.05907264 0.11900357 0.18220052 0.06245611 -0.22134572 0.17536436 0.053783964 0.026012264 -0.07116042 -0.054285668 -0.102931134 0.013387092 -0.24370497 -0.1703727 -0.083479576 0.1990176 -0.061314598 0.16429938 0.081215106 0.027779417 -0.106977366 0.21040753 0.035712335 0.048563648 -0.058582246 -0.16293715 -0.1485553 -0.2582053 -0.20809434 -0.064939894 -0.028664978 0.07196335 0.08111528 0.07512378 0.014817013 -0.08773143 0.02153725 0.0034379265 0.28828698 -0.11627721 0.263573 -0.03056431 0.15255097 -0.08692071 0.13211603 0.28334877 0.082618386 0.08074664 0.14076951 0.10839497 -0.1123491 -0.06999167 -0.030488756 0.113597035 -0.080428556 -0.14724194 -0.15785655 -0.15116563 -0.046573203 -0.025845021 0.122621454 0.09244075 0.058354948 -0.11115879 -0.12590332 0.15276505 -0.06783615 0.0996624 -0.08319631 -0.10289678 -0.13941221 -0.20972416 -0.057932165 -0.10121703 -0.24988395 -0.26260313 -0.15467338 0.19102941 -0.0014875315 -0.3778668 -0.3514223 -0.06080758 -0.082148775 -0.26966578 -0.14744681 -0.009322179 -0.065170966 -0.27334315 -0.34306964 0.07851927 -0.030212868 0.09599067 -0.18639994 -0.09184319 0.17279477 -0.16241305 0.09469455 0.07285611 0.058562867 0.010482686 0.071499124 0.039062396 -0.2683826 -0.08757735 -0.19452307 0.08471121 0.06842315 0.27348462 -0.059538625 -0.14548858 -0.029044092 -0.0065173293 -0.19374946 0.0038815537 -0.12943915 0.16760364 0.042859565 0.0011279181 0.22063316 -0.006108409 0.029593684 0.021817507 0.095398866 -0.022063619 0.08190256 0.22870035 0.16333142 0.035444885 -0.044685405 -0.050059494 0.116779275 0.22206096 -0.18543686 -0.0062162937 -0.12520058 0.003807374 -0.13551192 0.07571318 0.017659584 -0.22230794 -0.060344316 0.083904095 0.0591188 0.08339072 0.078169994 -0.039248995 0.21524021 -0.085140556 0.027505571 0.1727701 0.18746337 0.18639624 0.02779038 0.090120964 -0.04679876 -0.06774089 0.020874724 0.0808826 -0.015970219 -0.051952973 -0.013858638 0.22709538 0.22245118 0.16354488 -0.08327605 0.13897152 0.30334395 0.100567624 -0.27724794 -0.22980216 0.08453748
cid__ident 0.06361832 -0.21794818 0.103923135 -0.20307738 0.08410306 -0.21447384 0.46999466 0.22542514 0.16004887 -0.20794395 0.050861567 -0.14142741 -0.14091419 0.09485002 -0.16197322 -0.07041358 0.2077642 0.043032493 0.16031434 -0.083174855 -0.16435814 -0.17784919 0.056460552 0.20841639 0.023150852 0.11526688 0.0107186325 -0.071825884 -0.10563744 -0.005070079 -0.018001093 0.11200329 0.011241583 0.15019558 -0.069354944 -0.18007793 -0.12953256 -0.18197945 0.059284803 -0.05306346 0.008800965 -0.067125425 0.255598 -0.07924452 -0.009202807 -0.06299882 0.004883382 -0.29230675 -0.17482948 0.05682485 0.09471632 -0.009623803 -0.37210456 -0.013676208 -0.15430826 -0.033613354 0.036567833 0.12118317 0.1480184 0.16736244 0.057477314 -0.022001263 0.42731956 0.13504551 -0.060686167 0.3687227 -0.03737022 -0.18966933 -0.52546376 -0.0004914681 -0.16880405 0.16098285 0.043573048 -0.17041677 0.19516325 -0.14632599 -0.12969905 -0.046736956 -0.16034852 0.15325472 -0.0038400933 0.11470057 -0.035261307 0.34179246 0.11334592 -0.21542062 0.18486252 -0.16837132 -0.16201887 0.040038943 0.09103962 -0.19909595 -0.049753502 -0.13220009 -0.15462534 0.08336864 -0.004953539 -0.05458014 0.016135775 0.12815 0.1573518 0.011505128 -0.03916614 -0.05112643 -0.16355315 -0.057423092 -0.25269425 0.05902734 0.08902342 -0.042106453 -0.14477147 0.04240106 -0.13397166 -0.09627364 0.07382048 0.057101548 -0.016060442 0.24969736 0.05382812 -0.13955908 -0.02314171 0.14538237 -0.067379765 -0.01721201 -0.026336823 -0.17733285 -0.26560813 -0.015556349 0.05282075 0.11237013 -0.14665331 0.020466175 0.26718768 -0.1302468 0.112796344 -0.08387831 -0.14436296 -0.117623046 -0.2214931 -0.0655123 -0.1360367 -0.11763112 -0.06654675 0.07623684 0.17771244 -0.26178533 -0.17709978 -0.008626923 0.10037109 -0.2283443 -0.14676625 -0.18251875 0.02263263 -0.081282064 -0.20602739 0.20392995 -0.05591652 -0.016056396 0.05844131 0.008446885 0.30104056 -0.1649198 0.08620629 0.2564936 0.14513698 -0.10675273 -0.10746521 0.014480869 -0.051990274 -0.096121185 0.13067588 -0.10954938 0.07360465 -0.04551533 0.22427212 0.04363802 0.14321421 -0.33162484 -0.020982461 -0.13941465 -0.096906655 -0.013145924 0.18054989 0.01737844 0.2343019 0.14697902 0.15888163 0.34648928 0.07872912 0.010748647 -0.030437334 0.07002743 -0.06695255 -0.025065701 0.2871756 0.074123636 -0.026544528 -0.12516694 -0.24524182 -0.15469895 0.046023812 0.079702295 0.19044025 0.20502126 0.079735 -0.07023455 0.31199384 0.16920461 -0.14329992 -0.18261358 0.10755041 -0.115118966 0.002171377 -0.07297905 0.2614558 0.061858732 -0.17107807 -0.34984788 0.09896117 -0.15333153 0.12675539 0.13288844 0.08909445 -0.14475013 -0.07668282 0.11482264 -0.22469766 -0.026205974 0.010794129 -0.21646747 -0.021790452 -0.0040015993 0.028472578 0.19241104 -0.081058726 0.26899648 0.0001462267 0.04678086 -0.0017093099 -0.19928809 0.12983508 0.0040397397 0.11588835 -0.14370108 0.14501177 0.20224641 -0.07440432 -0.016743349 -0.113714665 0.07523752 0.012986252 0.2857973 -0.11507066 0.03915551 0.1512767 -0.41726494 0.09587689 0.0059621944 0.250198 0.17752035 0.06555645 -0.098288074 0.08204538 -0.027177328 0.005551808 -0.12693396 0.025485411 0.0018576188 0.043057658 0.04681407 -0.1897556 -0.07500133 0.025302105 0.1325146 -0.16735938 -0.16685283 0.13893321 -0.13272375 -0.2548457 0.16226463 0.0037335358 0.05555768 0.043541223 -0.12290448 0.020130102 -0.13915746 0.30102462 -0.039307322 0.006277314 0.019463317 -0.14260419 -0.0424713 -0.096125156 -0.011873582 0.072270185 0.042303097 0.1784109 0.1670371 -0.189812 0.3109814
tt__no -0.15317163 -0.007779771 0.04121222 -0.0027062602 0.17121401 -0.17291039 0.22630975 0.26892027 -0.16755308 -0.14204162 0.06666054 0.08503538 -0.09456105 0.13607314 0.104977824 -0.16181493 0.16585757 -0.08372684 -0.11784663 -0.06977147 -0.0034960415 0.03308444 0.15807225 0.24916746 0.038810372 0.15043692 -0.061043236 -0.09330128 -0.058783498 -0.039239116 -0.0050380575 -0.13063617 0.20213121 -0.1940136 0.09175645 0.037919506 -0.0053724013 -0.31053007 -0.19596198 0.038837142 -0.17568359 -0.025735967 0.19305971 0.087849736 -0.10985484 0.0068900217 -0.19796911 -0.079407796 0.098411 -0.1505805 0.14786497 0.09993375 -0.34873748 0.046164606 -0.008589093 -0.04872545 -0.027910518 0.105435856 0.03376064 0.20089048 0.04311898 0.18224537 0.21517341 -0.11732524 -0.1693443 0.30905002 -0.06323907 0.15484118 -0.2394313 0.20261218 0.04927003 0.03575555 0.114823155 -0.18515252 0.1230871 0.12996075 -0.11541798 -0.0066485223 -0.0026255602 -0.005508049 -0.17171721 0.2593118 -0.07792325 0.4000106 0.11730086 -0.15241465 0.08132486 0.07838345 -0.084146045 0.10850613 0.16371334 -0.06929378 0.14303134 -0.046188824 -0.020563941 0.04224195 -0.11933856 -0.25723422 -0.118274316 -0.09262839 0.10288692 0.031087963 -0.13597937 0.08980151 -0.1055065 -0.1707186 -0.13009952 0.0995118 -0.071760386 -0.11743637 -0.012744195 -0.14946806 -0.03988716 0.033332355 0.21502122 0.046046894 -0.14593868 0.18508731 0.028862128 0.10152376 -0.059277743 -0.019883307 0.1560561 0.0041330177 -0.13987425 0.065925404 0.19983296 0.11652823 -0.095525734 0.15753046 -0.07931317 -0.07914851 -0.07646456 -0.005558622 -0.04120662 0.12443641 -0.16302712 0.005262699 -0.086955786 0.050141245 -0.08480947 0.035063013 -0.11066166 0.063078016 0.16410524 0.055879794 -0.059146944 -0.012954454 0.16194503 0.086649835 -0.19030847 -0.2260924 -0.12000476 -0.0053183967 -0.059423503 0.0024280576 -0.24712785 -0.04791507 0.018985858 0.033392005 0.0803006 -0.10497309 -0.0043529766 0.19216566 -0.10697323 0.063413635 0.0670748 0.01923289 -0.089414544 -0.061223768 -0.1727893 0.19769274 0.05698286 0.06475834 0.08742931 0.09689162 -0.005546535 -0.19068456 0.0884178 0.10475802 -0.17094687 0.099580966 0.27146757 -0.17635077 -0.0509949 -0.17217924 -0.012598678 -0.026999472 0.14735778 0.039395854 0.02640836 0.134207 -0.1030543 -0.17565085 0.08833192 0.052689437 0.05633184 -0.21825683 0.054682318 -0.06079142 0.032489985 -0.03885306 0.080859296 0.043962125 0.1782641 0.12767899 -0.019929508 0.08983504 -0.21241745 -0.08118934 -0.0526146 -0.2902462 0.017393416 0.14474145 0.13385953 -0.20666473 0.14571194 -0.08870384 -0.028117293 -0.029334424 0.11738903 0.10377859 -0.029619955 -0.040023115 0.0023023968 -0.0027071831 -0.09698668 0.1491831 -0.09191519 0.05439716 -0.19397736 -0.27226293 -0.037591122 -0.095192075 0.10457547 0.21176717 0.16879018 -0.11858526 -0.13277638 -0.19864981 0.045922633 0.0431889 0.054979622 -0.069042996 -0.11285733 -0.08226245 0.10595808 0.12428065 -0.014712403 -0.03480117 0.3394754 0.04984192 0.03042833 0.050402373 -0.2774363 0.002913433 0.1647113 0.09011352 -0.28788638 -0.030663714 -0.16879517 -0.06830117 0.036171906 -0.03698796 -0.021708716 0.10204438 0.08264178 -0.15490925 -0.23093691 0.26776254 0.024409192 0.14203775 0.008978572 0.209456 -0.13599707 -0.009107547 0.026876802 -0.14110221 -0.22739887 0.23314145 0.08597227 -0.101548254 -0.085115924 0.149053 0.079348326 -0.22639543 0.048613396 0.02455412 -0.028980883 0.05218625 0.039073184 0.05355139 -0.026903814 -0.06940046 0.2017522 0.26221064 -0.10524451 -0.21188371 0.023087129 -0.10880272
cid__gps_code 0.09590262 -0.034823745 0.3180159 -0.43634605 0.11532848 -0.43442884 0.28245193 0.20932582 0.12972057 -0.22709908 0.1391173 -0.3350731 -0.110230535 0.15312104 -0.3256184 -0.07536246 0.08707267 -0.023879062 0.113014236 -0.16833678 -0.16972911 0.028397212 -0.09390175 0.27751863 -0.007612417 -0.0033530574 -0.075113095 0.03932757 0.123813376 0.1653229 -0.034376916 0.27041212 -0.035397124 0.27084193 -0.24518996 -0.11983204 -0.14097568 -0.3056573 -0.02758651 -0.16120568 -0.0022007744 -0.14884076 0.21382028 -0.047616906 -0.063382745 -0.12310737 0.0023767215 -0.40105417 -0.21773614 -0.03425334 -0.09344697 -0.042751364 -0.07586193 0.23398294 -0.14505799 -0.13612944 -0.0003042102 -0.027226519 0.29647213 0.10925162 -0.096898 -0.28682017 0.13826455 -0.07411966 -0.16346265 0.29405004 0.14516556 -0.29359105 -0.421291 0.021866363 -0.071022324 0.043020558 0.09028698 -0.11097253 0.31443733 -0.18324815 -0.11236102 0.11335333 -0.19804846 0.09275497 -0.021797404 -0.15750438 -0.08205898 0.23975547 0.059768513 -0.022789618 0.24174435 -0.1315412 0.08528035 0.20495293 0.13940929 -0.21900989 0.10137718 -0.16902177 -0.28351754 0.10064536 0.35375565 0.12692434 0.10476262 0.14508508 0.114674464 0.04835217 0.048102736 -0.09017923 -0.3627143 -0.04820567 -0.19604427 0.13424656 0.0005445803 -0.06367933 -0.20866041 0.016324854 -0.08040601 0.024110328 0.035585828 0.12488957 0.31594032 0.09985702 0.0241963 -0.27201676 0.1531964 0.14546312 -0.062956005 0.12984483 0.07018613 0.01591533 -0.45529315 -0.0032630572 0.10486762 0.31619442 0.03920301 -0.1446559 0.21900646 -0.42946342 0.075698115 -0.02778158 -0.20302857 0.11326943 -0.17493577 -0.08163547 -0.05574539 0.031628765 0.013096495 -0.09995221 0.22534087 -0.42968202 -0.13577175 -0.00703391 0.122081645 0.07543495 -0.05352151 -0.17747487 0.095621765 0.060926817 -0.15810426 0.109798834 -0.05467628 0.068268836 -0.09645249 0.13884659 0.19565663 0.12034903 0.04564895 0.27543157 0.032661505 0.09755289 -0.14251053 0.26330116 -0.085146986 -0.07811468 -0.093541615 -0.08779994 0.12946393 0.05315187 0.10807623 0.1693584 0.030500226 -0.051957887 0.12213361 -0.1737662 -0.19529718 0.0985054 -0.22012798 0.032725614 0.16427386 0.06864146 0.35239196 0.3950553 0.27395922 0.113430254 0.08525726 0.13520154 -0.121245 0.14032735 0.11628102 -0.07490541 -0.18332835 -0.00018195494 -0.06201117 -0.08385871 -0.16795115 0.060496844 0.034402814 0.1210968 0.14575808 -0.23304835 0.06912421 -0.0066917017 -0.1661128 -0.15621497 -0.015188138 -0.17514886 -0.053556662 -0.061397627 0.013936212 0.08535132 0.15098067 -0.2910922 0.19717911 -0.11079187 0.2786605 0.23599319 0.15560286 -0.11223535 -0.08240483 -0.0495469 0.0077937883 -0.10144952 0.10998033 -0.24218561 0.010610869 0.032171734 0.18371987 0.026373306 -0.09795227 -0.04680039 0.21697223 0.12306592 -0.1159139 -0.28709948 0.20390388 -0.002247518 0.08444175 -0.12291174 0.041552596 0.085454926 0.08640384 -0.056277648 -0.09124493 -0.047265798 0.023294577 0.30046347 -0.15656252 0.08849709 0.0045103896 -0.20242211 -0.04935839 0.021047818 0.13789107 0.12999348 0.07585106 -0.22808544 0.05641986 -0.12313317 -0.19232805 -0.15295056 0.100836664 0.036497433 -0.09757813 0.10630695 -0.2059088 -0.010813299 0.071285605 -0.13341981 -0.043034602 -0.07935116 -0.40379745 0.119225726 -0.18787472 0.064227596 0.020009289 -0.1616777 0.03260332 0.19209665 -0.054408487 0.03929855 0.24842094 -0.10295552 -0.14607687 -0.0069026942 -0.08411838 -0.12158923 0.065820634 0.013208619 -0.014852205 0.009243836 0.010319067 0.18040527 -0.019558975 0.098091066
tt__airport 0.037920106 -0.08687491 0.10084527 -0.093313485 0.10847208 -0.1719385 0.09276527 0.13712002 0.030995877 -0.105845235 0.20318733 -0.119140334 0.074329376 0.37327307 0.042326376 -0.09281344 0.23640771 0.09236505 -0.08521737 -0.14252342 0.19923803 -0.013598305 -0.076982416 0.29563624 -0.060320683 -0.0036566746 -0.025685286 -0.002482573 -0.09668315 -0.101291925 -0.15235387 -0.09230007 0.16000259 -0.09770167 -0.04180973 0.29286167 0.08729086 -0.17180398 -0.21861142 -0.03895265 -0.18316337 0.057120334 0.15723875 -0.117215216 -0.063829765 0.13592562 -0.06281828 -0.08224138 -0.0074739913 -0.004181387 0.06862479 -0.055101726 -0.28335738 0.06748803 0.043245975 0.1479094 -0.002643995 0.22605239 0.19129981 -0.20160872 -0.123456635 -0.05590644 -0.103417896 0.0069675962 -0.005495014 0.021125553 -0.08437478 0.2257193 -0.17416704 0.15286717 0.09809603 0.15417784 0.03872113 -0.07055651 0.17317621 0.2335107 -0.2692048 -0.0224411 0.028945517 0.16368619 -0.18840733 -0.0842206 -0.14023176 0.17800513 0.14763875 -0.17093058 0.19634925 -0.06303158 0.075941734 0.060818966 0.05910916 -0.0844124 0.062177997 -0.09248575 -0.10895652 -0.07426856 -0.074372835 0.043053113 -0.0460135 -0.0161998 -0.057196192 0.181599 0.042298548 -0.0042042295 -0.18037878 0.021192454 0.14496687 0.104886435 -0.014086483 -0.058935992 -0.1249981 -0.12785669 -0.12729344 0.21656042 -0.03097981 0.05985535 -0.02174218 0.20540777 -0.028164888 0.060240496 0.10008586 0.069732465 -0.13182291 -0.19575071 -0.10722199 -0.0028259698 -0.003231167 -0.05784655 0.107350715 0.27315828 -0.060596254 -0.0029614451 0.0979867 0.0011795573 -0.17549196 -0.14157276 0.012888112 -0.1405812 0.023937367 -0.27081183 -0.074675046 -0.03712829 -0.02391086 0.3191181 0.06337294 -0.16218868 0.05184362 -0.3078407 0.109433584 0.24777317 -0.12322618 -0.16241461 -0.013057101 -0.012478727 -0.099221185 0.013390778 -0.1121012 0.060801428 -0.40297186 0.24798906 0.07509971 -0.001645658 0.020136334 0.18841307 0.12594335 -0.014702586 -0.17597581 0.19705997 -0.10309971 0.15090527 -0.037141867 -0.04478054 0.10784165 -0.3477355 0.10015355 0.06029089 0.048824213 -0.20004466 -0.015915908 -0.19393414 -0.10150322 -0.022778023 0.17862819 -0.19447754 -0.100779586 -0.065958664 -0.123083614 -0.16744709 0.005156656 0.04956776 -0.061825205 -0.011600108 -0.08512803 -0.14776003 -0.004150641 -0.08237334 -0.0513617 -0.14307828 0.007192756 0.03241671 -0.04504952 0.017524082 -0.21935421 0.024543606 0.009326113 0.103816845 0.3310081 0.15453559 -0.3600681 -0.21641481 -0.034388695 -0.022161989 0.09200779 -0.0809504 0.34710407 -0.35391676 0.066290095 -0.08927604 -0.10962572 -0.18019125 0.16544123 -0.0743034 -0.17230713 0.092050515 -0.01011536 -0.0049647614 -0.08544987 -0.04980054 -0.12049233 -0.15449907 0.108750135 -0.21380787 -0.016404964 -0.34871262 0.09898875 0.0643257 0.31258655 0.0032658014 -0.1618964 -0.17116225 0.25958562 0.018080307 0.048191532 0.08409466 -0.08208486 0.07145695 0.053313922 0.03551149 0.10964953 0.13123068 0.18228097 -0.09041103 0.1614518 0.057531063 -0.003621507 0.16841677 -0.10044175 0.055336166 0.1603766 0.017439 0.020001918 0.12624042 0.027483854 0.035454743 -0.2136235 -0.017281162 0.2259375 0.23266824 -0.15117377 0.13203472 0.120918155 -0.15368398 -0.07345536 0.21305658 -0.046022996 0.107295565 0.036703084 -0.05986944 -0.21000443 0.14084363 0.03974519 -0.07735125 0.0011326276 0.109267116 0.0589886 0.16918966 0.038583748 -0.035292245 0.13842522 -0.11206278 0.14816415 -0.11321884 0.09340672 0.08027849 0.1026247 0.2748728 0.08457384 -0.17492059 0.02495979 -0.074453376
cid__municipality 0.26824272 -0.02761607 -0.076845884 0.20420653 -0.019577622 -0.5210395 0.31736502 0.3275653 -0.17417146 -0.3182881 0.11012194 -0.37001005 -0.14671867 0.32336676 0.088802785 -0.4400296 0.18008713 -0.23046231 0.117232345 -0.123025514 0.21774384 -0.12360669 0.029613445 -0.01767633 0.061581407 -0.027934007 -0.34495082 0.15002455 0.038897004 -0.2190181 0.16742888 0.072552904 -0.24414472 -0.03378935 -0.2211533 -0.19018134 0.07999767 -0.3391296 0.025258845 0.0067866445 -0.2700813 -0.1747994 0.24397443 0.16735852 0.12225302 0.4651357 -0.12639488 -0.27071264 0.34593627 -0.15744832 0.07681762 -0.16933446 -0.6009701 0.23757927 -0.10375583 0.41672066 0.21038507 0.09978791 0.07094517 0.06189183 0.038157564 0.36962295 0.22177778 0.12743875 0.0108951805 0.19417973 -0.0806208 0.41611055 -0.117478155 0.11003359 -0.09013006 0.0519661 0.24926202 -0.10793524 0.40374702 -0.03181138 -0.29212955 -0.12803543 -0.2946566 0.030858891 -0.22608021 -0.12298996 0.03500308 0.37168458 0.43445387 -0.29034182 0.050387792 -0.15212066 0.075405195 0.04635059 0.00035267312 -0.07729684 0.14876054 -0.02042221 -0.07135142 0.06505624 0.09191739 -0.2557034 -0.11158916 -0.2148065 0.35661155 -0.035028126 0.10257433 0.25361103 -0.26386347 0.07604638 0.06310499 0.121383056 -0.007824479 0.014429205 0.025531823 -0.06666661 0.09660264 0.096554324 0.015009344 0.24256252 0.0541128 0.0035383096 -0.09084512 -0.088360414 0.030014481 0.31004128 0.16317105 0.035662528 -0.027802572 0.12850991 0.046455484 -0.1425484 0.15195328 0.29375643 -0.09904555 0.106119245 -0.080207705 -0.042382326 -0.119417846 0.45481285 -0.13230744 -0.3091443 -0.17420793 -0.18480754 -0.085652485 0.08327198 0.13260801 0.05204742 0.13850904 0.042301614 -0.005697072 -0.067566805 0.18622367 0.1632677 -0.22884671 -0.15837432 -0.27391577 -0.051717922 -0.08458216 0.022052208 -0.057356477 -0.07835302 0.09983422 -0.0015618894 0.214769 -0.1920545 0.043135874 0.021534929 -0.06421473 0.016755031 -0.13055396 -0.019632598 -0.21262702 0.027051426 -0.23247209 0.26923165 -0.054701142 -0.19634156 0.013894142 0.082194634 -0.040244672 0.116278574 -0.2867301 -0.08400271 0.06579511 -0.04610893 -0.11482061 -0.20311359 0.11828891 0.19333428 0.02629197 -0.2391154 -0.038393542 -0.1562566 0.0107505135 0.083693735 -0.105127364 0.09506217 -0.08901928 0.018613577 -0.18857951 -0.032632608 -0.05842757 -0.013036674 0.15991165 -0.11242923 -0.008328206 0.32711038 -0.25684312 0.294076 0.011284402 0.022326589 -0.042893384 -0.09867301 0.1131073 0.040099457 0.34843335 -0.028737566 -0.11790976 -0.1836899 -0.054559458 -0.16191904 -0.04169132 -0.054570314 0.12606454 -0.21896653 -0.012453889 0.06515295 0.10412426 0.06865418 0.018061703 -0.035320114 -0.19020301 -0.09786667 -0.099074475 -0.22030784 -0.23618534 -0.09208917 0.031517223 0.1377254 0.1351458 -0.049196437 -0.19449703 -0.1237835 -0.08558946 -0.10665949 -0.2623362 -0.027627692 0.04556161 -0.16486299 -0.047164552 0.15231888 0.037585698 0.08676027 0.25185984 -0.11418241 -0.11760489 0.04164437 -0.09852762 -0.01906935 0.00578736 -0.17004357 -0.09886192 0.0567033 -0.10444656 0.066802174 0.048412304 -0.047920972 -0.22289574 0.050616447 0.047898326 -0.05189829 0.26709965 0.06418084 0.2443372 0.031771377 -0.1834266 0.02231865 0.013691955 -0.03923574 -0.048666377 -0.20687298 0.00382513 -0.03677537 0.0018970639 -0.119790964 0.07562319 0.14288507 -0.116271436 0.12332412 0.20818213 0.054769766 0.13888156 0.31803113 -0.090291396 -0.1559233 0.009277318 -0.036176693 -0.0043828287 0.068422996 0.21744224 -0.097753435 -0.10053303 -0.14771116
tt__small -0.013857367 -0.064012535 0.07548485 0.030064605 0.0037334503 -0.17489529 0.15183264 0.07822017 0.093693495 -0.05645273 0.17307942 -0.20656615 0.18156634 0.34289294 0.0498246 0.03294119 0.39539102 0.043435358 -0.05748509 -0.037697878 -0.07605612 -0.016868098 0.005139727 0.2737959 0.13950035 -0.104672104 0.114854276 -0.037169352 -0.22204849 -0.10470147 -0.040375933 -0.09834557 0.1432649 -0.122753136 0.02730988 0.188522 0.094346434 -0.24397612 -0.14091264 0.049591042 -0.25578243 0.20063607 0.07414972 0.11210608 -0.23257226 0.20842068 -0.092190795 -0.11458235 0.19839667 -0.054660715 0.20463781 -0.047070064 -0.36195448 0.018195001 0.03215171 0.053822093 0.100898646 0.2941595 0.34549332 -0.19363917 0.121221736 0.13329338 0.03483001 -0.014747223 0.09848882 0.060424954 -0.1764867 0.12633494 0.030385716 0.11882591 0.090491064 0.119857565 0.19168156 -0.23608717 0.20015821 0.23567224 0.0015953097 -0.14653377 -0.018041551 0.03342284 -0.16557634 -0.11059135 -0.17505537 0.33480525 0.18250555 -0.3668745 0.23927937 -0.04560099 -0.027575435 0.20831554 0.05023446 0.044207368 0.09395372 0.065177396 -0.07916275 -0.08470936 0.0017539576 0.19521438 -0.106725484 0.029993191 -0.00053395424 0.11738041 0.017177314 0.095161475 -0.032398045 0.102766454 0.015281063 0.12939118 0.11791855 0.024416508 -0.045094345 -0.0062074093 0.11960217 0.081749804 0.09608728 -0.026540173 -0.0679051 0.24486484 -0.090870924 -0.044087593 0.14149652 0.05423712 -0.25318423 -0.2534293 0.023619482 0.134792 0.15207693 -0.08931068 0.06547277 0.094280615 -0.10420667 0.0036721956 -0.047145255 0.100766264 -0.1130059 0.044292904 -0.024034783 -0.05967633 -0.002996006 -0.20842965 -0.15173176 -0.05853703 -0.07427053 0.16737986 0.16938989 -0.2471347 0.0383687 -0.106813304 0.11950047 0.212976 -0.001580054 -0.18659256 -0.13254961 0.0121096 -0.07228721 0.13381425 -0.40917167 -0.05648351 -0.2545165 0.3929842 0.04318507 -0.07034638 0.08091375 0.25300285 0.0031238538 0.14187685 0.026506677 0.23789328 -0.17684202 0.38216075 -0.20905553 -0.0723562 0.11930942 -0.31107306 0.12968703 -0.006843161 0.025002057 -0.14421867 0.11904729 -0.1220685 -0.028561642 0.058496367 0.08364915 -0.1299356 -0.009829912 -0.29440913 -0.056657236 -0.17045206 0.07529486 -0.048741534 -0.09525647 -0.013370056 -0.0045103333 -0.03226228 -0.24697593 -0.08492806 -0.083059855 -0.019131431 0.111490846 0.0743605 0.01827871 0.07083952 -0.1104202 -0.08450381 0.15351199 0.11054105 0.29452974 0.1921404 -0.36937064 -0.25129366 -0.047724824 -0.18999033 0.097587034 -0.084332496 0.47519478 -0.31975415 0.16927023 -0.15910892 -0.004064618 -0.019040352 0.251573 -0.00148109 -0.1416775 0.06142972 -0.005599423 -0.007351549 -0.17272738 0.05285088 0.0047318344 -0.14099985 0.022679258 -0.0654809 0.09268302 -0.15316139 -0.00062488695 0.049693577 0.24441187 0.10544502 -0.12911917 -0.2581792 0.24294095 0.09641331 0.021889934 0.26922598 -0.19596194 -0.1410627 0.13584208 0.08708958 0.08888569 0.0024213935 0.2681258 -0.18611787 0.3063278 -0.1019064 -0.11459022 0.07159823 -0.047408767 0.047035243 -0.029034885 -0.18891138 -0.07459891 0.021221416 0.18164216 0.02793421 -0.12297623 0.07283236 0.29052052 0.08243166 -0.08811499 0.13617238 -0.07709092 -0.052613564 0.0673332 0.2661721 0.017983517 -0.19650963 0.05703387 -0.15890212 -0.35115564 0.076057024 -0.06564334 -0.077054344 -0.07885355 0.078371465 0.062284485 0.186972 -0.019919617 0.008681618 0.21600837 -0.16949949 0.15881506 -0.118983634 0.050872646 0.15943824 0.13428809 0.28485847 0.13308881 -0.029608607 0.13525523 -0.10495055
cid__local_code 0.10723148 0.060101695 0.19546282 -0.36061925 0.2948578 -0.33293676 0.13817504 0.21306151 0.106152244 0.003452723 0.32890886 0.037911635 -0.13784954 0.11688172 -0.4175729 0.0274226 0.036549304 0.16710268 -0.080798134 -0.51448166 -0.057840317 0.015194351 0.20435667 0.22416535 0.04876486 0.08584311 0.013891695 -0.060224213 0.12920327 -0.30736795 0.2183033 0.28915477 -0.17790352 0.24603419 -0.092532255 -0.16155685 -0.02521073 -0.339991 -0.07870004 0.0024228408 -0.12891537 0.058221467 0.30205822 -0.18019994 0.041159563 -0.17279662 0.24272926 -0.20540106 -0.30653304 -0.13241054 0.31692973 -0.12477535 -0.09750877 0.1030332 0.15635487 -0.10838632 -0.057599574 0.16256809 -0.010025144 0.11888912 0.03215217 -0.14694338 0.3409684 0.08400304 -0.24400678 0.21870339 0.041910134 -0.23472638 -0.4729503 0.02634051 -0.23468001 0.06088035 -0.018807134 -0.22073723 0.14566019 0.014077845 -0.2177245 -0.27133706 -0.061538912 0.16532704 -0.075745635 -0.061706644 -0.09602589 0.33020237 0.009162496 -0.27297953 0.2804422 -0.26029637 -0.0077061583 0.25801116 0.18918131 -0.27659908 0.024314856 -0.3101363 -0.06961131 0.1232914 0.28005454 -0.03829196 -0.05733507 -0.07423188 0.020956742 0.31798708 -0.2473147 -0.086814374 -0.31985742 -0.27433425 -0.39132765 0.21984816 -0.2857556 -0.20280299 0.121749245 -0.040277425 0.28048608 -0.2095749 0.06990455 0.24512579 0.17456979 -0.09682523 -0.18999797 -0.27842468 0.23592617 0.10022548 -0.03017942 -0.2932425 0.004254643 0.12865667 -0.33935928 0.032942127 0.05910999 0.23692347 0.00085942354 -0.09559165 0.049986906 -0.35957474 0.26006764 0.06166997 0.03768015 -0.25431523 -0.1800116 -0.17694528 -0.2011685 -0.08019035 0.11181823 0.095048934 0.14137864 -0.27707952 -0.30672804 -0.31260833 0.23965825 -0.07795206 -0.1650046 0.13411574 0.13398854 0.029345745 -0.11316021 0.1008784 -0.2803654 -0.23067954 -0.30215448 0.12925753 0.03925778 0.013542698 0.0032617385 0.13389184 0.28722876 0.06104368 0.08776269 0.14545728 -0.046562504 -0.013472538 -0.037361674 -0.0019724264 -0.08303411 0.036080647 0.04530152 0.1555085 0.07681987 0.11838157 0.0147108715 0.089259 -0.16678606 0.12423772 -0.026747847 0.099544816 0.055291507 -0.1995557 0.17165554 0.23192458 0.0050942763 0.03777028 -0.012155679 -0.08169912 -0.13504505 -0.17247652 -0.0116717685 0.01186898 -0.1772051 0.18578252 -0.11509008 0.11187148 -0.02999013 0.08390257 -0.018938987 0.16662695 0.23122893 0.038833935 0.05603542 -0.024255581 -0.1371102 0.100731775 0.2513526 -0.051851243 0.22844858 -0.24391745 -0.16296998 0.20311426 0.15343094 -0.52933276 -0.32100677 -0.33695576 0.24170586 0.19523743 0.12376851 -0.097757295 0.11082576 -0.0139459465 -0.14110045 0.06749238 -0.13539623 -0.041122116 -0.08842207 0.031448703 0.017900392 -0.027736759 0.076397486 0.04080153 -0.15592074 0.28639692 0.030977087 -0.1682326 0.0024625529 0.008405962 -0.0543566 -0.21265602 0.0306044 0.0582906 -0.009720128 0.027392825 0.08426858 0.032854505 0.11599538 0.5164371 0.031987946 0.22259797 -0.056693517 -0.11326473 0.14787339 -0.037740782 0.045183685 0.05599678 0.108911715 -0.26218033 0.11811677 0.16295898 -0.09421568 -0.030671924 0.11486663 -0.108572885 -0.13063744 0.14205483 -0.15720035 -0.1361346 0.18536808 0.06401905 0.01489636 -0.4855838 0.095548764 -0.2529865 -0.03370286 0.09272961 -0.0011748677 -0.0078226775 -0.05525091 -0.14795333 0.059224457 -0.007496232 -0.13178614 0.068830855 -0.16434625 0.17169887 0.1047867 0.019641731 0.012760701 0.07826083 0.028335592 -0.08065877 -0.3089701 0.29652324 0.098104976 0.104851395
tt__ -0.15334132 0.16235039 -0.17204918 0.11869971 0.19599111 -0.0977678 0.22749624 0.21805789 0.12584363 -0.15971074 0.039902776 -0.2830375 -0.04569242 0.056274306 -0.2054028 -0.19232337 0.15282148 -0.23833615 0.017755272 0.22865081 -0.0465183 -0.09447683 0.026817493 0.22542208 0.09771687 0.040753633 -0.19383867 -0.111003116 -0.078958675 -0.16671154 0.04934867 -0.01600602 -0.109261364 -0.10351189 -0.1844289 -0.065766424 0.031035796 0.075590365 -0.10845312 -0.01474225 -0.18799467 0.050728388 0.16954131 -0.027868163 -0.012844481 0.06261409 -0.13320121 -0.2275891 -0.05886098 -0.035802074 -0.016129201 0.11684809 -0.015188838 0.11418672 0.098331325 0.051545464 0.10523788 0.031738203 -0.053168755 -0.008460368 -0.16293027 -0.10056575 0.1945421 -0.008704383 -0.09375282 -0.112145506 -0.2157485 0.048458975 -0.08439945 0.0013366877 -0.040858828 0.3882555 0.15369451 -0.35173324 0.1504141 -0.011095633 -0.0966475 -0.09158207 -0.12998842 -0.119489364 -0.063342206 0.028929463 0.17859614 0.105869815 0.33154026 -0.12799506 -0.00793068 -0.054459114 0.09475344 0.32697672 0.116895095 -0.07607179 0.14302702 -0.12734386 0.015582147 0.16334498 0.043849237 -0.05602108 -0.0043272157 -0.19055216 -0.089900635 0.19589815 0.10222763 -0.15827394 -0.029816234 -0.15317227 -0.04017314 -0.03745103 -0.056497946 -0.102585144 4.8149144e-05 -0.29155314 0.31759492 0.023915358 0.08606968 0.15372433 0.09370398 0.09751224 0.11419535 -0.19892201 0.28257608 -0.006835124 0.29597023 0.062257513 0.22010876 -0.2008354 -0.09409678 -0.062987216 -0.14186187 0.22118884 0.2081005 0.10577476 0.22473696 0.066937275 0.17600545 0.105214074 0.10626628 -0.30420634 0.070545636 -0.18553951 -0.22345763 -0.15090516 0.045736667 -0.059889264 0.2675034 0.12911531 0.00949276 -0.09850311 0.20795234 -0.03238417 -0.13261057 -0.11762651 -0.066901244 0.09702166 -0.05429754 -0.027804075 0.020407742 0.059470184 -0.16896582 0.27670017 -0.09727815 -0.09457889 -0.1099025 0.038874462 -0.010190259 0.119687445 -0.06593457 0.047491547 0.1800292 0.23101045 -0.0078005954 0.046719793 0.08661491 0.10998898 -0.012306421 0.10452977 0.08584522 0.12023222 0.17523825 0.16948585 -0.15241227 -0.06593907 -0.09937227 0.14746983 0.000492919 -0.12282163 -0.016096989 -0.12977679 -0.16435799 -0.2319843 -0.06369519 0.1603831 -0.35630575 -0.22677721 0.13712746 -0.029425805 -0.05893477 0.06629773 -0.107090786 -0.14727451 0.06775 0.18862092 -0.060205247 -0.0025673877 0.020270567 0.09333573 0.021404972 -0.14314705 -0.09000609 -0.19718881 0.15961549 -0.33800578 0.14168292 -0.029562313 0.097918265 -0.049005404 -0.056327116 -0.21916035 -0.05018226 -0.2569218 0.27478006 -0.19172925 0.05372648 -0.19626042 0.17234524 0.0022313553 -0.07297429 0.11197781 -0.1261864 0.30949396 -0.03819994 0.018109387 -0.12315615 -0.20281921 -0.23227829 0.13318954 0.034967687 -0.052276533 -0.06989888 -0.14163716 -0.14682737 -0.16307391 0.030291772 -0.008846968 0.055597097 -0.08852356 0.1938951 0.15835956 0.14020047 0.12002605 0.08335647 0.0376555 0.08168765 0.22975434 -0.06056848 -0.09464886 0.39316484 0.06774748 -0.2587393 0.07606434 -0.23576726 -0.07650586 0.039118193 -0.06317802 -0.12902956 0.09480934 -0.15180586 0.0514334 -0.35036632 0.23827788 -0.16200045 0.17951007 0.0125118345 0.24715649 0.04995191 -0.0337721 0.12550963 0.039241325 -0.03681323 0.06805599 -0.014803201 -0.07126453 0.10066898 0.14741333 0.036752127 0.094133005 -0.21095516 0.22035876 0.0038967875 0.28120655 -0.046000175 -0.072074376 0.025572773 -0.014329663 0.14996879 0.048609212 0.13479626 0.018777836 0.20354302 0.032742426
tt__NA_ -0.09820446 0.15332831 -0.20948105 0.07613754 0.22002576 0.023702491 0.11926703 0.23511113 0.036856543 -0.20082702 0.065722235 -0.22194108 0.0007169553 0.028052505 -0.28397268 -0.27110395 0.17376682 -0.15395719 -0.012389235 0.20612225 -0.026517494 0.001956256 0.00016412506 0.22698915 0.11602038 0.09099186 -0.100871705 -0.0034714886 -0.051500943 -0.12926391 -0.09418457 -0.002168985 -0.13932839 -0.17284434 -0.23207787 -0.18474486 0.14756952 0.063357994 -0.14617547 0.077439256 -0.2373376 0.21865438 0.2384259 -0.105299085 0.16666023 0.025742762 -0.17660743 -0.3518233 -0.06339595 -0.06732103 -0.060471978 0.21494296 0.00031123788 0.065209 -0.027111698 -0.012109036 0.03316816 0.13198505 -0.18013212 0.012139098 -0.057060998 -0.078868896 0.06654567 0.036938697 -0.09341867 -0.104940064 -0.15953296 8.1710255e-05 -0.08730796 0.0526164 -0.031561516 0.16462573 0.13051575 -0.47922552 0.17949498 -0.13066888 -0.17903405 -0.22610976 -0.12581182 -0.17237592 -0.034234796 0.14470835 0.11085426 0.18049288 0.34130055 -0.20985001 -0.11171913 -0.1259389 0.08535208 0.3005042 0.20991744 0.015913012 0.028018823 -0.32239938 -0.057121962 0.18863659 0.10135326 -0.12928899 -0.17347123 -0.031213121 -0.08572175 0.034147333 0.08706691 -0.20986657 -0.019131295 -0.08709669 -0.13824351 0.1478414 -0.13287187 -0.20648372 0.0017855049 -0.27301872 0.35875472 0.11453081 0.100132555 0.24876465 0.13442035 0.15826869 0.12803596 -0.13054062 0.37667453 0.0025580192 0.28072765 0.039074924 0.043841142 -0.055218365 0.07310896 -0.087730594 -0.24306683 0.28618473 0.08533716 0.051566638 0.24282163 -0.069898404 0.16510403 0.17921722 0.07867654 -0.2616426 0.18430541 -0.27175552 -0.08907961 -0.29537797 -0.1009238 -0.118167296 0.26680773 0.16805628 0.045773912 -0.084825926 0.24548717 -0.10685694 -0.13540606 0.15071546 -0.0496157 0.18349469 -0.19169986 -0.074906126 -0.24432953 -0.054294467 -0.27234018 0.15916915 -0.0943867 -0.009273377 0.0057452964 0.101184994 0.08655866 -0.055914816 -0.041254256 -0.059671573 0.10412764 0.083635055 -0.09932527 0.061060883 0.11949852 0.07254994 0.11126815 0.08821146 -0.03945074 -0.059343074 0.1554174 0.1771592 -0.14826134 -0.11649088 -0.021733396 0.15738393 -0.0011054662 -0.11942966 0.064465754 -0.020015646 -0.0995661 -0.0099574085 -0.06477351 0.25346375 -0.38478482 -0.17597021 0.08417401 0.083276056 0.09510332 0.07353534 -0.24225341 -0.08017813 0.07498443 0.19711813 -0.033154145 -0.05472363 0.077274986 0.1747133 0.06502702 -0.092802435 -0.07803155 -0.21315975 0.20528498 -0.21628228 0.17264545 -0.10468671 0.18226416 -0.0068844706 0.05824492 -0.33738708 0.09241917 -0.35874367 0.2869021 -0.14761864 0.071001746 -0.085087374 0.15519893 0.043200996 0.123431325 0.015350952 -0.30693367 0.20401645 -0.05241678 0.10390986 -0.1028788 -0.15664025 -0.23092672 -0.01763387 -0.026177764 -0.0636994 -0.046368055 -0.16344412 -0.17832062 -0.13283193 0.15876463 -0.15314169 0.03999628 -0.23758985 0.0717185 0.15401357 0.067137316 0.07841966 0.16238336 0.2431541 0.06300347 0.2940059 -0.07818461 -0.047709633 0.4314143 0.1416068 -0.28474033 -0.14960262 -0.18480752 -0.16711259 0.071451515 -0.023469813 -0.18844979 0.16906022 -0.22913142 0.00981021 -0.31047612 0.20250529 -0.10304 0.16918394 -0.05864444 0.15507114 -0.02607354 -0.070213795 0.1608799 0.035478007 -0.17044048 0.07513247 0.028253244 -0.010053805 0.06406292 0.15517499 0.095842235 -0.06090122 -0.11535262 0.07119119 0.098650746 0.23647384 -0.16916624 -0.02912992 -0.013608436 -0.004806446 0.1568515 0.13762107 0.1183243 -0.0735771 0.16766715 -0.0039037163
tt__US -0.07805693 0.18167254 -0.07239013 0.21825948 0.33147532 -0.016499301 0.03657958 0.08722264 0.026838893 -0.2878173 0.15400143 -0.15321156 -0.09364131 0.01012935 -0.23549327 -0.10353677 0.21371949 -0.24465148 0.15140556 0.17232804 -0.04395938 0.07433677 0.072818115 0.22904444 0.062349312 -0.09120375 -0.17946382 -0.0075387396 -0.012269358 -0.20451327 0.049812935 -0.051340092 -0.27060133 -0.2253785 -0.33826065 -0.12781912 0.21472158 -0.13157338 0.05074636 -0.005596203 -0.29575145 0.39690775 0.080253005 0.07787425 0.067965195 0.02812329 -0.18191968 -0.2893976 -0.13195747 0.0931679 -0.040949915 0.01634463 0.010219322 0.24771562 -0.116575286 0.33742243 0.32779065 0.069964334 -0.054961156 -0.08135521 -0.18285257 -0.1559206 0.2468192 -0.009115981 -0.068521805 -0.0795384 -0.038181506 -0.026828429 -0.15168417 0.047351778 -0.15195483 0.17944075 -0.014516622 -0.4005298 0.13736618 -0.24155362 -0.20084089 -0.07626768 -0.21499695 -0.09813403 0.1191498 0.09824131 0.2550431 0.2569046 0.1820413 -0.25533015 -0.03986292 -0.300655 0.12172119 0.19418743 0.0028356249 0.04945146 0.15226531 -0.22238097 -0.03588056 0.06441745 0.12029965 -0.18993942 -0.052210893 -0.084201545 0.071812436 0.10219337 0.068611294 -0.15266822 -0.089158215 -0.0821292 -0.20878038 0.08784201 -0.12127402 0.042304285 -0.08822701 -0.09868903 0.3037743 0.146718 0.16612217 -0.022839861 0.040661592 0.085493326 -0.019484198 -0.15281264 0.32654136 0.03715234 0.16522522 0.23449676 0.11095579 -0.093902215 0.04614086 0.020197378 -0.14230177 0.032535523 0.24309604 0.12299917 0.12171952 -0.1810565 0.054018583 0.1199532 0.009542321 -0.3068693 0.1667458 -0.2438922 -0.14752635 -0.1598758 -0.006346895 -0.16613841 0.31890002 0.03279976 -0.001329267 -0.15835449 0.15630789 -0.1648956 -0.26059297 -0.049082525 -0.09634573 -0.041552357 0.04092483 -0.0042083943 -0.0917291 -0.026253993 -0.14638634 0.23679481 0.09233382 0.06211792 -0.29972225 0.093957365 0.054780997 0.16239946 -0.15647556 -0.18579389 0.06395627 0.3999292 -0.077041544 -0.060766775 0.07270836 -0.016600456 0.0434466 0.2997575 -0.119072706 -0.021835769 0.1280308 -0.0010009999 -0.15169103 0.23907673 -0.007679832 0.24755417 -0.10191036 -0.1652594 0.066474214 0.07157718 0.085622184 -0.1791503 0.17508098 0.14561313 -0.32528198 -0.3831563 0.017034406 -0.15247934 0.05441333 -0.19055529 -0.025435979 -0.0053638164 0.050407797 0.22926871 -0.116796724 -0.0055751987 -0.060655568 0.10347241 -0.026197765 0.020794779 0.1998924 -0.04089482 0.15881133 -0.18248749 0.19856517 -0.04693241 0.07870111 0.049571488 -0.060525693 -0.18483765 0.062813215 -0.32021376 0.12897927 -0.0675421 -0.13816738 -0.046727944 -0.048302397 -0.015213663 -0.122786514 -0.008552542 -0.20912749 0.011571268 -0.10514841 0.045813687 -0.18176028 -0.111309394 -0.10322749 0.013196568 -0.050677214 -0.24828887 -0.09828251 0.10351417 -0.18561164 -0.15973313 -0.010694373 -0.05761271 -0.05233838 -0.21901454 0.25379226 0.26159173 0.16942245 0.20387554 0.34722155 0.28565624 0.011639759 0.1825459 0.013869602 0.15635537 0.120433405 0.008638364 -0.10544319 -0.09001497 0.004884914 -0.09265657 0.10598723 -0.004003621 -0.16586083 0.124595724 -0.15756421 0.078072324 -0.3779088 0.2164781 -0.25577012 0.1449024 0.12039564 0.2450971 0.17916287 0.199445 0.2786926 0.16190173 -0.3314401 0.17246856 -0.036255978 -0.11302211 0.050962627 0.23033814 0.09436485 -0.03653185 -0.08171776 0.13122392 -0.037962057 0.2268055 0.045130234 0.13105057 0.17095175 0.0057829535 0.10339525 0.19987497 0.18485363 0.09719368 0.13000056 -0.11687016
cid__wikipedia_link 0.11352781 0.42798594 -0.33313224 0.023034042 0.14317356 -0.33143115 0.44086954 0.43954897 0.04783074 0.28160495 0.5218741 -0.63045406 -0.087083526 0.030215515 -0.3327466 -0.24256505 0.21979144 0.26673055 0.0057155513 -0.033544865 -0.27577803 -0.348236 -0.47620866 0.28498375 -0.24160601 0.051465668 -0.32734573 0.04047399 -0.14600034 -0.5283391 0.056977015 -0.16784567 0.27197215 -0.21818423 -0.21955018 0.0852414 0.30178553 0.24705544 -0.42511758 0.07241489 -0.29487643 -0.08596243 0.28049383 -0.32358718 0.034554213 0.0022324198 0.011047878 0.03900091 0.31369555 0.22107004 0.03034971 -0.18767609 -0.48829865 0.07429515 -0.16248445 -0.15711534 0.24884285 -0.3549976 0.27655 -0.02206191 -0.04650008 -0.032060646 0.22760008 -0.068968356 0.13950966 -0.0393065 -0.04513217 0.025903232 -0.3426616 -0.21971054 0.3376322 0.17477918 0.02372778 0.27154693 0.5429361 0.029070087 0.148746 -0.028340379 0.28098622 0.111152425 -0.17516835 -0.16267411 -0.18066058 -0.16053952 0.37630633 -0.18263873 0.006019677 0.0032215863 0.0024431122 0.14310177 -0.19034198 0.037641644 0.21666588 0.15400511 0.46607327 0.1297083 0.12332081 0.28963408 0.26838702 -0.063162625 0.19741274 -0.15606155 0.25177315 -0.13543963 -0.37121168 -0.1732029 0.0025257338 0.006585764 0.3033581 -0.2926162 -0.13885604 -0.30572978 -0.09825674 0.1780107 0.03343115 0.24067861 0.06385065 0.18978016 0.07598696 -0.2402394 0.040792823 0.101602264 0.26074544 -0.10387069 -0.022687469 0.41107947 -0.20781927 0.08555422 -0.036933646 0.32514665 0.10460014 0.23662314 0.2314096 -0.52464795 -0.16473852 0.14350043 -0.25467938 -0.4354048 -0.26091743 -0.028867528 0.24885973 -0.04104143 0.07561775 0.20738102 0.2631511 0.040438168 0.28218806 -0.3447045 -0.25998697 -0.102951966 0.13786182 -0.1684862 -0.024964482 -0.19720785 -0.09731622 0.13954042 -0.13857533 0.14828908 -0.41883716 -0.26546484 -0.044282865 -0.08556063 0.06994174 0.3710582 0.029122276 0.22894858 -0.3880156 0.06682938 -0.094936386 -0.13944642 -0.3658079 0.4720394 0.07743856 -0.22747636 -0.046648826 0.3994408 0.047325123 -0.066415474 -0.3551381 0.17808004 0.30137837 -0.1026219 -0.045445453 -0.018577201 0.16966984 -0.1805033 0.5488358 0.14317973 -0.02330359 -0.22248001 -0.11832918 0.0719816 0.0030490223 -0.052619193 0.29434714 -0.058183953 0.0077438396 0.10194899 -0.13176686 0.09468496 -0.13720657 -0.00039575138 -0.1622371 0.13370568 0.09639186 0.25380984 -0.008730818 -0.09050555 -0.077579215 0.02238546 0.12657785 0.03408828 0.1783029 0.25223386 -0.19259605 -0.05408871 -0.02481843 0.19875884 -0.04235242 0.037861347 0.52999985 -0.24158916 -0.12548016 0.21176301 0.09082309 -0.013746104 0.05564511 -0.24978553 0.024094773 -0.109288596 0.19499159 0.29018492 -0.060098015 -0.10634365 0.33633855 0.079330795 -0.09234916 0.10897853 0.24188599 0.023829658 0.04492872 0.19786175 -0.058153655 -0.26965755 -0.07243535 -0.12641054 -0.07959678 -0.28251702 0.07261256 -0.055216786 0.12214699 0.3299773 -0.15926957 -0.047513556 -0.09163821 0.25772262 -0.055626266 0.06919614 -0.23317051 0.05071689 -0.031053258 -0.13225158 -0.04428923 -0.22421543 -0.36767417 -0.030377904 0.2358964 0.17979558 -0.01807807 0.22939709 -0.020733975 -0.25640655 -0.31126344 -0.08967232 -0.23105627 0.19953896 0.0768335 -0.014404742 -0.15534604 0.08655383 -0.11296035 -0.11631001 0.12422361 -0.28631642 -0.014563918 -0.124913335 0.1302009 -0.24596734 -0.13533553 0.1591315 -0.31011486 -0.04903842 -0.1386507 0.15778373 -0.25938055 0.28627285 -0.09018049 -0.5996762 -0.27994207 0.31071854
tt__heliport -0.44227177 0.17236505 -0.15825504 -0.0079904795 0.06191005 -0.3987932 0.19446115 0.49378756 -0.27124572 -0.08910571 -0.01868282 -0.14043783 -0.20276414 -0.23555909 -0.21428566 -0.29171443 0.13407749 -0.18508655 0.082657166 -0.094194956 0.09558435 0.05915063 0.21880901 0.08681939 0.032489333 -0.026844127 -0.53999084 -0.11776854 0.2970237 -0.119379565 0.044247556 -0.11008493 0.10498552 -0.034212854 0.27292415 -0.4351656 -0.20026594 -0.40459576 -0.22218554 -0.058692195 -0.3532559 -0.25667778 0.24725105 0.18110968 -0.19562404 -0.13268425 0.048641767 -0.062460903 -0.046141036 -0.10584133 0.117408656 0.31766692 -0.40176773 -0.105253555 -0.10134464 0.17479679 0.02620475 0.0947123 -0.105237216 0.32025307 0.20074917 -0.13169587 0.02634862 -0.0110745225 -0.09510925 0.25095302 0.17922655 0.17020497 -0.26893252 0.21767104 -0.06396 0.1702032 0.07708134 -0.22063154 0.09291194 -0.16873698 -0.18010639 0.1072636 -0.21563244 -0.07041545 -0.10569586 0.26477244 0.16875635 0.27965885 0.3270568 0.109157324 0.08562829 0.0024528946 -0.15769927 0.08214989 0.17530906 -0.0016272479 0.1397333 -0.08504594 0.3960126 0.18006125 -0.14080219 -0.3265849 -0.20278783 0.2314446 -0.024730247 0.17649706 -0.2209543 0.3519131 -0.41305852 -0.25922745 -0.2981365 0.28480518 0.06422525 -0.031986512 -0.11988549 -0.09591096 -0.09993972 -0.15265088 0.32590878 0.10169243 -0.105626166 -0.18144906 0.1703168 -0.14732759 0.03932358 0.12230559 0.45579836 0.30539033 -0.16760503 0.39933723 0.21480288 0.06918847 -0.25728554 0.3615118 0.1616337 0.1791442 -0.09562313 0.02384451 0.40136993 0.020974735 -0.091623686 -0.12697892 -0.04829318 0.18158118 -0.08368999 0.11901077 -0.21857712 -0.36764494 0.078279585 0.17934045 -0.21540625 3.6929065e-05 0.24500339 0.21390936 -0.18084498 -0.070146166 0.31809258 0.057661276 0.2615883 -0.2185993 0.3378789 -0.1011638 0.35688406 -0.172104 -0.15141056 0.10041748 -0.042233128 -0.1487874 -0.10090885 0.33630177 0.0035439343 -0.18364254 0.10543818 -0.030220907 0.11540541 0.39948538 -0.13194819 0.089056455 0.057477623 0.1516342 0.06884215 0.04519934 0.1912934 0.18843794 -0.25005528 0.05438724 0.17842962 -0.14534596 0.24063757 -0.07098391 0.060957372 0.49171767 0.1934876 0.13691035 0.22652824 0.1508278 -0.121334866 -0.28270093 0.16396438 -0.20412345 -0.09713319 0.061609432 -0.10728478 -0.040481396 -0.23462605 0.026291527 0.17729574 0.12762958 0.018570064 -0.07514172 -0.39076504 -0.36241484 0.07499953 -0.056317654 0.085493 -0.036011197 0.24144217 0.05602756 -0.07253793 -0.091717355 0.031340435 -0.12844454 -0.33035493 -0.17077683 -0.32320312 0.0652289 -0.23000124 -0.054647844 0.015287906 -0.06869576 -0.07115445 0.04399334 0.04247185 -0.18496421 -0.08132922 0.026644776 -0.14549363 -0.26916635 -0.20072594 0.19383924 -0.20895348 -0.08142571 0.16505133 0.11688784 -0.09379443 0.14724983 0.22372824 -0.33343655 0.11265814 -0.091759846 0.27325678 0.02550806 -0.34057993 -0.021014387 0.26174614 0.252098 -0.20702134 -0.043969326 -0.06792424 -0.28660533 0.3678151 -0.19968528 -0.4699009 0.08021169 0.110140845 -0.042878576 -0.033362824 0.06935764 0.24317479 -0.023494665 -0.17658088 -0.18283588 -0.2371876 0.09575134 0.036939397 0.1329829 -0.07757972 -0.083375394 0.05561122 -0.0437785 -0.07576624 0.037250977 -0.096790075 0.023957435 0.05027467 -0.06829489 -0.28767076 0.026956618 0.07684904 -0.50411624 0.04568231 0.21290071 -0.25598502 0.18657734 -0.18347488 0.43392336 0.13374694 -0.2797571 -0.088790044 0.3465542 0.15234932 0.045821883 -0.054929614 -0.0025391404
cid__keywords 0.045673802 0.07615705 -0.12544863 -0.17754333 0.29146528 -0.29145035 0.30641553 0.31620014 0.14661424 0.17079797 0.75525904 -0.09087983 -0.4171721 0.09829153 -0.20729522 -0.23461694 0.28317997 0.010010617 -0.24310276 -0.03967643 -0.085852504 -0.24262778 0.16210759 -0.21902938 0.10420213 0.060256355 -0.00048540474 -0.036848422 0.08239906 -0.39568734 -0.21039851 0.013443748 0.06948843 -0.28737336 0.13901538 -0.49644196 0.17226292 -0.42295298 0.007077219 -0.0015458001 0.08842509 -0.14539514 0.25585812 -0.24844213 -0.019500438 0.019508554 0.18248941 0.18360698 0.18663727 -0.07730326 0.08691179 0.12607925 -0.42495668 0.038683638 -0.4532639 0.096244484 0.25340226 -0.12212747 0.20669341 -0.008793647 -0.10640476 -0.16273236 0.28800902 0.30732283 -0.04758741 0.29040596 -0.19750021 -0.042054277 -0.34548974 -0.059828285 -0.18130025 0.21463592 0.17444517 0.044845868 0.43921292 -0.06893817 -0.089108355 -0.02399764 -0.13143831 -0.27088538 -0.41504705 0.09437135 -0.33412153 0.26514155 0.006001116 -0.1771085 0.36142895 -0.18457185 -0.13646325 0.17775922 -0.18333921 -0.088298194 0.27274546 -0.120661736 0.34050897 -0.06734021 -0.21798846 0.35595456 0.010572787 -0.23970404 0.19128609 -0.06788876 0.12866385 -0.01593792 0.14124015 -0.43754444 -0.18011482 0.437008 0.07672023 -0.16939844 0.076028116 -0.32571262 -0.21146253 0.626265 -0.3040248 0.4537687 0.24846196 0.2739035 0.2609877 -0.53892356 -0.40685415 -0.19908616 0.057155903 -0.19806021 -0.027715905 -0.06444712 -0.22405592 -0.029243475 0.24483214 -0.19694176 0.18387643 0.67898476 0.36628267 0.063210815 -0.124005035 -0.24556702 0.4008712 -0.6476497 -0.03160869 0.16483125 -0.17653212 0.011695449 -0.11373597 0.10734385 0.27919728 -0.22290568 0.09368804 0.0058319075 -0.15900253 -0.027057247 0.05438168 -0.035086006 0.07378856 0.15857162 0.115171865 0.15619022 0.014734405 -0.35460556 0.17141585 -0.12356205 -0.12677598 0.04340059 -0.031067058 0.23562361 -0.3130762 0.37371686 -0.46622705 0.05214788 0.21627071 -0.4212415 0.11152128 -0.07791381 0.21421306 0.16536771 -0.15258686 -0.20966011 -0.024628187 -0.17340866 -0.42246836 0.15662414 -0.23695686 0.41768894 0.2135024 0.30929756 0.24595428 0.5251578 0.47916594 0.24708557 0.13271679 0.28704125 -0.05567513 0.20557149 -0.12899587 0.07891917 0.15381521 0.12136243 -0.37147418 -0.025896773 0.11337544 0.2946753 -0.21705441 0.04789548 0.019930627 0.3634627 0.09197461 0.18501124 0.31462806 0.07397593 -0.2465385 0.13689958 0.19394231 0.21598984 0.2695051 -0.3958371 -0.006529822 0.03560804 -0.15767305 -0.319735 0.29701015 -0.2288314 0.06416815 0.29293436 0.0010784803 -0.2573972 0.5108537 0.2669785 -0.1425663 -0.10331115 0.12993875 -0.08842328 -0.16421828 0.07006389 -0.02078409 0.027615003 0.13306583 0.039885268 -0.2577712 -0.28726932 0.3328034 -0.22470015 0.24678828 -0.2638162 -0.19508351 -0.006299334 0.24578147 -0.0051061567 0.31928495 -0.17243636 0.26749521 -0.31311664 -0.21356037 0.018294469 -0.17341532 -0.1766945 -0.34729168 -0.00804283 -0.011292974 -0.26043046 -0.08000496 0.0713462 0.07422645 -0.109343834 0.11113468 -0.18680662 -0.27994236 0.12597139 -0.2781971 0.16749123 0.023496138 -0.15383302 -0.24037665 0.18256636 -0.015207016 0.1288186 0.2472374 -0.06027303 -0.12728906 -0.4751977 -0.1577031 0.2588148 0.062815584 -0.24434339 -0.104527295 0.32851303 -0.09207007 -0.2665798 0.048369862 0.062230732 0.023491375 -0.13015741 0.08732834 -0.07921456 0.08599315 0.3905246 0.52532893 0.12767124 0.028309215 -0.009188116 -0.08530074 -0.0831398
cid__elevation_ft -0.0073864795 0.15522696 0.010589682 -0.22435674 0.16881177 -0.15384246 0.08128559 0.35882375 0.11143944 -0.050305255 0.18389107 0.03571493 0.08605716 0.16351075 -0.12880577 -0.17662215 0.35726252 -0.10073544 0.031421233 -0.032509014 0.24558513 -0.035605602 0.32968244 0.50310636 -0.010784997 -0.09599636 -0.3018236 0.14372921 -0.21468206 0.047880717 0.01555302 -0.23736861 0.3018607 -0.18413967 0.2162165 0.52569276 0.024225362 -0.24499877 -0.49625793 0.24340011 -0.58842427 0.12720318 0.3097578 -0.05313274 -0.24345808 0.4225793 -0.057865966 -0.13860941 -0.01941908 -0.26864496 0.012547292 -0.1987829 -0.5520249 -0.16235033 -0.025451109 0.2721358 -0.046776395 0.039345153 0.04461344 -0.12173692 0.048599068 -0.17443067 -0.043900695 0.08991641 -0.15746234 0.1335026 -0.0050495677 0.074392416 -0.2600732 0.17540632 0.19312827 0.32249048 0.09820952 -0.30162865 0.21517155 -0.14586978 -0.18029106 0.116026826 -0.058761742 0.20532203 -0.33143014 -0.37332022 -0.29049984 0.4951218 0.19519296 -0.20401171 0.20369384 -0.15080076 0.047562018 0.6391236 0.20588964 -0.22531325 0.11584735 -0.20681252 -0.17563453 -0.044255935 0.34260568 -0.043604575 -0.18687192 -0.019949395 0.0073281503 0.028636709 -0.13550444 0.47333038 -0.065605946 -0.19605727 -0.033442687 0.18646322 -0.13819027 0.059336435 -0.46994853 0.030968608 0.0737498 0.101493865 0.027431117 0.19565643 0.11315203 -0.30193818 0.033949677 -0.2024203 -0.21857324 0.045629468 0.22793657 0.083310455 0.1337237 -0.118059106 -0.060305372 -0.16748108 -0.31592295 -0.27091798 0.3518423 -0.02927139 -0.14713195 -0.027904278 0.18181059 -0.018099777 -0.10601964 -0.3369928 0.024203548 -0.06105768 0.0067603067 0.2991249 -0.009049598 0.0659076 0.1570853 0.2657394 -0.06453113 -0.12481471 0.23489 0.25482532 0.02265259 -0.40918082 0.10161644 -0.18328683 0.103738 -0.49498996 -0.06872026 0.22568165 -0.25580177 0.009138956 0.19379953 0.23243105 -0.11167337 0.47904593 0.03933705 0.14949356 -0.5161688 -0.037684567 -0.08467239 0.0069800243 -0.13749635 -0.0061468193 0.05011114 -0.087900184 -0.20884934 0.093930006 0.039108884 -0.15947829 0.13264053 -0.22248827 -0.14195056 0.11160739 0.17809619 -0.028909402 -0.16258816 0.07797254 -0.026870377 0.0073545 0.18082398 0.14546984 0.06939974 -0.03974302 -0.37877187 0.043920655 0.2527336 0.08977494 -0.0073285303 0.13830757 -0.17460214 -0.1642915 0.0652237 0.06571248 -0.045389075 0.017230684 -0.05646597 0.12441453 0.05006739 0.10957586 -0.39183408 0.033366676 -0.35325396 0.15623857 0.20904149 -0.40026823 -0.23106034 -0.018398073 -0.08393912 -0.0033088217 -0.0152499145 0.09547892 -0.1228933 -0.15759598 -0.106632665 0.17222571 0.26711655 -0.20353128 -0.043900173 -0.17086934 -0.14670832 0.22736143 -0.07820404 0.08951279 0.30033895 -0.11038338 -0.08766973 0.12504719 -0.33096585 -0.21532995 -0.19596276 -0.2788035 0.040517442 -3.3867313e-05 0.37415284 0.07558442 -0.21803613 -0.013674741 0.013036428 -0.2349301 -0.5241864 -0.00972607 0.39437532 0.2888148 -0.20535345 0.1859191 0.022334175 -0.014314769 -0.07895267 0.2516859 0.108588494 0.06011759 -0.06614802 0.15979019 -0.23933686 0.19650537 0.27307886 0.38604903 0.076799236 -0.30400786 0.01927292 0.08524743 -0.2217281 -0.057331346 0.01349075 0.12497342 0.12974894 -0.118165225 -0.062357318 0.0068937927 -0.25976574 0.104071446 -0.019206276 -0.06299038 -0.07586066 -0.010760824 -0.19112739 0.3409289 0.096976675 0.08270286 0.0308396 0.0012542319 -0.23495185 0.23417555 0.05707051 0.21994452 0.18184112 0.28691554 -0.15868638 0.1329025 0.11292079 0.1892851
cid__iata_code -0.019389026 0.26537174 0.16635215 -0.21848127 -0.031404156 -0.38863415 0.07897266 0.24506952 -0.026190368 0.04246422 0.1824777 -0.16312404 0.020768924 0.23312467 -0.13932317 0.09293474 0.20516348 0.08581752 -0.2250636 -0.2117752 0.10689348 -0.47780594 -0.0760461 -0.011650132 -0.43782976 0.09931735 -0.22220913 -0.028791217 -0.29284525 -0.41344234 0.084122494 0.21503018 0.43642113 -0.0011820365 -0.03628089 -0.007998704 -0.044495124 0.06709925 -0.16935897 -0.3775629 -0.30431843 0.06024896 0.35137993 -0.4292269 0.16180004 0.1403893 -0.028156465 -0.15112075 -0.14739673 0.16980131 -0.07636541 -0.13000077 -0.75091636 0.0880646 0.04845802 0.06127737 -0.037605584 0.12956639 0.014654303 -0.33429453 0.25631058 0.20301229 0.122952834 0.3000323 0.374673 0.039383404 -0.03117097 -0.09501117 -0.27785316 0.00471126 -0.18050425 0.21340297 -0.06507707 0.18290536 0.44165334 -0.07527463 -0.2633811 -0.12989213 -0.11846414 -0.1295762 0.014290705 -0.23337567 -0.12548986 0.3125182 -0.057180688 -0.08171042 0.20815377 -0.5114317 0.04490888 0.40235743 0.29953334 -0.25556782 -0.037617452 0.23741151 -0.17528805 -0.03488487 -0.20336325 0.35565495 -0.10062186 -0.050146773 0.25350386 -0.009706958 -0.1421949 -0.1589134 -0.43753597 -0.29064813 -0.02562414 0.04397161 0.10048375 -0.13693154 -0.43375275 -0.06443596 -0.39875016 0.17207164 0.11028108 0.2641009 0.053849302 -0.003257151 -0.191813 -0.11712319 -0.00075495534 -0.018821388 0.40772557 -0.20737626 -0.20294313 0.14563093 -0.26501882 -0.17105727 0.26422715 0.08775196 0.13890155 0.21636124 -0.06726659 -0.3824817 0.08468746 -0.14261484 -0.33991644 -0.17577568 -0.115332715 0.08678317 0.052533265 -0.19710393 -0.07282983 0.054509822 0.4924943 -0.15621279 -0.014953399 -0.09493197 -0.09535888 -0.25703347 0.3142539 -0.017466394 -0.09796003 -0.17596444 0.13234212 -0.14203201 -0.10383563 -0.09208407 -0.26332662 -0.12118021 0.12873109 -0.31106642 -0.037116162 0.21292421 0.37205023 -0.27107152 0.1620225 0.6931064 -0.20066597 0.0634832 -0.24835248 -0.09725168 0.1064421 -0.3945916 -0.23947617 0.037223727 0.121737204 0.05866581 0.2578937 -0.1562996 0.4418926 -0.087602004 -0.59483165 -0.2255214 0.3990214 0.067326374 0.42094582 0.15082616 -0.23522753 0.35948166 0.112926826 -0.27079958 -0.1940986 -0.08823042 0.23292752 0.45013633 -0.11379963 0.021187196 -0.37376434 -0.1678884 -0.08582013 -0.038132038 -0.3894694 0.34978086 -0.22614507 0.07299975 0.07852362 0.034917515 -0.20304646 0.19198394 0.15901724 0.13352273 0.27147627 0.20042065 -0.30146334 0.08776185 -0.10370967 -0.44778365 -0.4725711 0.33734602 0.16804262 -0.11450839 0.20095283 0.22045754 0.06625245 -0.3217079 0.24268213 -0.31627047 -0.14671667 0.119773 0.16026147 0.36564356 0.25989765 -0.36343557 0.043831628 0.30705088 0.06214878 0.14932556 -0.052589435 -0.30159506 0.18174517 0.10817354 0.001331481 -0.23975536 -0.21117857 0.20745118 0.03490208 0.22810781 0.07114089 -0.22334789 -0.060812686 -0.019582683 0.053291287 -0.045978274 0.22498213 -0.11546029 0.15261832 0.51585466 0.16389827 0.07774488 0.24591647 -0.4029245 -0.112832926 -0.5882109 -0.484059 -0.09607324 0.034426853 0.23274219 -0.5619883 0.034158207 0.079188526 -0.38718006 0.05613183 -0.18516085 -0.16562974 -0.07939165 -0.09451487 -0.048202142 -0.3596586 0.10485626 0.16025972 -0.04062636 -0.07202753 0.026543656 -0.15545604 -0.22076298 -0.07563315 -0.38197887 -0.0366659 0.25476676 -0.047976762 0.15334147 0.57558197 0.17677999 0.057825312 0.024610369 0.045056906 0.20384675 0.27552238 -0.19587518
tt__EU 0.1899733 0.015182869 0.3945003 0.01501735 0.28291604 -0.1301168 0.23236193 0.27520233 0.3148174 -0.19091134 0.090133555 -0.0018608235 -0.19416575 0.31337783 0.13975917 0.11027841 -0.09176668 0.41475743 -0.19139808 -0.098177604 -0.09730887 -0.086455874 0.032370105 0.2935738 -0.007265939 0.2058313 -0.4210735 0.12745784 0.22749269 0.19804345 0.35971874 -0.49234653 0.21615016 -0.38833058 0.16186692 0.27738732 0.14869367 -0.44494826 0.17266332 0.040904537 -0.042068217 -0.2175173 0.29146692 0.20583385 0.06772725 0.11284242 0.30543423 0.17423548 0.17864288 0.04013597 0.2968234 -0.012430972 -0.3851538 -0.046234474 -0.107559875 -0.27020606 0.43791935 0.22059506 0.14259925 -0.019191876 0.2582042 -0.07383286 0.05438265 0.17342746 -0.2834522 0.28124523 -0.23142289 0.28356537 -0.048345216 -0.0695284 0.04669738 -0.09681575 0.5803106 0.04228497 0.16068658 0.12249104 -0.532027 0.4057109 0.029403524 -0.30919465 0.16446707 0.06495743 -0.2799667 0.2926495 0.2950073 -0.30567718 0.03510946 0.25215992 0.107824974 -0.064900786 0.07571583 -0.22796546 0.04521069 -0.022930404 0.09147159 0.06959611 -0.2615738 -0.14950475 0.29081947 0.18343993 0.013695405 0.1419989 -0.016411416 -0.058297187 -0.2731003 0.06646789 -0.090563215 0.21934159 -0.11725667 0.082459986 -0.21771915 -0.24760701 -0.10545571 0.11514399 0.12823935 0.34589702 -0.29084352 0.0025086934 0.024361076 -0.37442732 -0.011687782 0.53962886 0.16096321 -0.4202096 0.06654069 -0.018245978 0.023941321 0.04202521 -0.078986175 0.09338147 0.1748514 0.2427831 0.21049292 -0.088035546 -0.028017588 0.22023785 -0.08011499 -0.37774757 0.15887082 -0.030600766 0.0074232435 -0.13836017 -0.1693464 0.15086819 -0.41580832 -0.07787363 -0.0020078458 -0.09691223 -0.3441372 -0.21325694 -0.049247295 -0.34454998 -0.23758045 -0.49062324 0.06950165 0.18443894 -0.14650755 0.16286448 0.019089472 -0.09747198 0.10000397 -0.21318729 -0.19883509 0.21494585 0.0038784773 -0.21698949 -0.10967446 0.31233504 -0.032905623 0.028511753 -0.29460713 0.10638033 -0.19377665 -0.055974603 -0.11573182 0.1331391 -0.14784656 -0.28096563 -0.3151128 -0.15651698 -0.10576229 -0.12811632 0.17442727 0.15459724 -0.15817213 -0.37297526 -0.3499121 -0.336268 0.10112458 0.033590652 -0.09408273 -0.10025402 0.104192555 0.4092707 0.50281656 0.13496019 0.17991292 0.2606091 0.012455823 0.17434093 -0.3766439 -0.30607212 -0.07588313 0.16375083 0.09334169 0.17965564 0.06480779 -0.0016061781 0.023436558 -0.0027904646 -0.38472256 -0.115284316 -0.29780424 -0.22369766 0.055062138 -0.092628695 -0.14997649 0.3005832 -0.0475356 0.26693603 -0.3174007 0.29949513 -0.017342702 -0.09513628 -0.09568037 0.15882023 -0.18146776 -0.252412 0.21571052 -0.1557108 -0.10353321 0.1787373 -0.2601657 0.23963708 -0.2325722 0.15987971 0.2788962 0.03286537 0.00076302566 0.072060615 0.39776552 0.16957448 0.06633432 0.12626049 -0.0041658427 0.045593813 -0.08760711 -0.1658312 0.029963478 0.108847104 0.09792923 0.0046724463 0.35412338 -0.30999056 0.16531391 0.09040552 0.043250415 -0.042212684 -0.19472468 -0.11605648 0.06348044 0.0759308 -0.14626804 -0.38641804 -0.26713735 -0.025017591 -0.004903481 0.045688543 -0.1891946 0.084812954 -0.09657676 0.01136666 0.17830682 -0.20326366 -0.3530607 0.19538178 -0.029230166 -0.092776045 0.10286644 0.08096742 0.3944508 -0.30060172 -0.24737047 0.056210794 0.25874457 0.0037008836 0.2489675 -0.024932826 -0.25152948 -0.16290322 -0.43050355 0.045652725 0.13815674 0.43692946 0.502008 0.35288212 0.22197883 -0.27968833 -0.26765108 0.07662836
tt__SA 0.038797606 0.03874395 0.078596346 -0.03127986 -0.4279214 -0.19396481 0.27160716 0.6582041 -0.025461338 -0.09767484 -0.028347334 0.12956122 0.037980717 0.16373038 -0.06865273 0.015052876 0.46597221 -0.24615392 0.047147915 -0.103022106 0.025537394 -0.07508469 -0.28107002 0.18429968 -0.46532744 -0.09612259 -0.0076580755 0.19417793 0.3037062 -0.22034635 -0.13970718 -0.072540306 0.17984414 0.18921505 0.44124362 0.16152188 0.08675426 -0.48586354 -0.03704322 -0.06206054 -0.08266651 0.23993444 0.3841892 -0.21005723 -0.054014526 0.3422563 -0.26337862 0.21770531 -0.13924502 -0.11681553 0.6089568 -0.07193068 -0.14811489 0.20005864 -0.12066799 -0.28552556 -0.43421555 0.44165727 0.123577274 0.27413824 0.18123075 0.36273056 0.106994465 0.041148253 0.28446665 0.47914428 0.34713182 0.4080237 -0.17800926 0.036128003 0.054557487 -0.16486369 0.10583492 -0.15521362 0.26277465 0.145192 0.08942229 -0.38747266 0.20953885 -0.08045708 -0.26063424 -0.26052514 -0.026655326 0.36228004 -0.10264973 -0.18537766 -0.019450206 0.0030287975 0.20713335 -0.11827664 0.4103879 -0.53966165 0.124221765 0.0020072034 0.10577278 0.120414294 0.048181348 0.11019102 -0.18694885 0.012321696 0.16683492 0.17935286 0.12428414 0.383138 -0.42458546 -0.38366202 0.22332922 -0.07127029 -0.16175655 -0.31679678 0.1170389 0.21287633 -0.092070505 0.18500252 -0.0038308902 0.031540673 0.24525268 0.13555321 -0.13099433 0.042996924 -0.13375646 0.0021346968 -0.14800845 -0.23434716 -0.27046874 0.084256254 -0.13853675 -0.5223947 -0.06407662 -0.0065760775 -0.004047497 0.002719525 0.15708609 -0.014403631 0.07112243 0.2188509 -0.07257913 0.0747593 -0.3245757 -0.09914908 0.16569386 0.12629072 0.12924083 0.3040637 0.2786358 -0.2714062 -0.19995147 0.11332341 0.20117459 -0.25192374 -0.12650786 -0.11843653 0.39040983 0.21175683 -0.025563654 -0.101275824 0.28422904 0.059658445 -0.39763805 0.24618542 -0.037270732 0.015619446 0.25138518 0.031687837 0.2505119 0.36541975 0.20595244 -0.15651302 -0.22806868 0.061833978 -0.23072395 0.2911377 0.16235834 0.028307227 0.05101157 -0.04701799 0.24842894 0.14023516 0.07681484 -0.32930508 -0.19152538 0.23560406 -0.051370997 -0.26745987 -0.00024003556 -0.09674366 -0.07821505 0.008777692 -0.072835974 0.048327897 -0.09090249 0.038422704 -0.14221214 -0.0034497115 -0.28072423 -0.35993984 -0.088810585 -0.16012901 -0.040174842 0.1567737 0.17072167 -0.021827105 0.15472415 0.024363646 0.109499566 -0.19465937 -0.011106627 0.2297977 -0.15037772 0.20711544 -0.2115098 0.12414203 0.19539581 -0.14058441 0.21831533 -0.07017981 -0.24335943 -0.1586392 -0.15544951 -0.103104986 0.13462028 0.17218378 -0.18753451 0.13793667 -0.037415832 0.09293893 -0.09178391 -0.34940502 -0.14774388 -0.22924058 0.17340979 -0.30651933 0.19677454 -0.0024100798 0.2147091 0.16404302 -0.08934733 0.33259845 -0.17124715 0.1044408 0.08323052 -0.071157664 -0.11028478 -0.13794342 0.11165033 -0.11707218 0.061521187 0.007450136 -0.116853744 -0.21214812 0.4403549 0.09876908 -0.071894646 -0.10950668 0.017857471 -0.5773444 0.01467273 -0.22084823 -0.0061537474 -0.1204324 -0.39499015 -0.08272455 0.050195564 -0.36826453 0.2813808 0.21868564 -0.042065952 -0.338576 -0.18540983 -0.5279668 -0.12703577 0.1110018 -0.006246215 -0.0056161587 0.07421565 0.040064033 0.007674643 0.30140492 -0.07563952 0.25994274 0.01879048 0.0221793 0.04541922 0.09791985 -0.23606248 0.17180511 -0.46174008 -0.13845682 -0.13269326 -0.026628533 -0.022093914 0.049714755 0.07719918 -0.29521897 0.26221138 0.00591543 -0.19614056 -0.22298938 -0.04684116 0.28083423
tt__Airport -0.31154868 0.3324432 -0.093784034 -0.27570683 -0.07936829 -0.35260767 -0.23426706 0.23451813 0.084329374 0.28564325 0.3300544 -0.56354064 0.110064425 -0.11170459 -0.28968042 -0.15294012 0.22176942 0.18938006 0.11259703 0.14865679 -0.1397215 -0.09377739 -0.5304645 0.14675355 -0.23531254 -0.067890786 -0.049509116 -0.15925494 -0.20763367 -0.22502825 -0.0886667 -0.10152492 0.019815467 -0.10734905 -0.050536748 -0.062771015 -0.006596256 0.09102959 -0.27945137 -0.03584357 -0.097534515 0.04144806 0.081935436 -0.21344751 -0.32763007 -0.14244923 -0.411093 0.12861784 0.07929794 0.12143916 0.12136089 -0.15765524 -0.13019088 0.14695838 -0.24787787 0.09821353 0.04272896 0.07137213 0.018233437 0.07490018 -0.154363 0.028131194 0.043224934 -0.04776227 0.25007898 -0.031248976 -0.033161934 0.23275681 -0.16704956 0.032665048 0.27881548 0.6209096 0.22213921 0.20743693 0.6895143 0.24142483 -0.20001923 0.2631885 -0.020984154 0.014785536 -0.2689618 -0.28630066 -0.18338265 -0.012004343 0.35781044 -0.066569924 0.2772651 -0.2537147 0.08639732 0.3433395 0.051866822 0.05775584 -0.17693311 0.097113274 0.5298045 0.017537683 -0.13059227 0.12703122 0.16567384 -0.09792314 0.2596883 0.14179409 0.28495872 0.028771656 -0.03886848 -0.044750407 -0.043149352 -0.0050797034 0.118518874 -0.060486637 -0.4763754 -0.24957779 -0.3780422 0.06479927 0.15472126 0.16565388 0.12195363 -0.04614942 -0.056180563 -0.033270285 0.08607232 -0.35392502 0.40443823 -0.28301293 -0.06514385 0.19085138 -0.20414363 -0.15628435 0.11561253 0.17973788 -0.12944457 0.12617216 0.053145386 -0.41096777 0.05749706 0.027331047 -0.07265642 -0.32409516 0.022671727 -0.046626244 0.45327115 -0.05294501 0.306207 0.21785472 0.24467108 0.034951586 -0.006779338 -0.04517814 -0.097467974 0.07334391 0.20132859 -0.25805613 0.15946548 -0.27089477 -0.04665495 0.057456624 -0.28745162 -0.0076043867 -0.2931358 0.058187418 0.12083594 0.022572428 0.1161208 0.15177402 0.029541083 -0.22777541 -0.26480344 0.16405015 -0.10667238 0.100219496 -0.0785486 0.060891863 0.025225848 -0.28786418 -0.14140056 0.10496948 0.13173829 -0.12716216 -0.24497795 0.023600588 0.21232149 -0.03518173 0.08976095 0.10252295 0.43487787 -0.32385635 -0.050228413 0.08773798 -0.25096533 -0.13115764 -0.21560045 -0.10140601 0.16617675 -0.17550157 0.14718641 0.0744745 -0.20568125 0.24538936 -0.16120833 -0.09202111 -0.048978344 -0.074337915 -0.021146584 0.17964612 -0.07346777 0.56207466 0.055743925 -0.18409327 -0.12884204 -0.108748965 -0.07156568 -0.089833885 0.29482573 0.2111 -0.09889619 0.06592534 0.16800725 0.101271294 -0.00847684 -0.044630535 0.29289854 -0.088382676 -0.19568701 0.15086459 0.29525372 -0.16455881 0.07425637 -0.20382866 -0.046748873 0.04486424 0.15442151 0.027212068 0.22483934 -0.4111 0.29842874 0.0830424 0.06141841 0.034267318 0.11245817 0.10640531 0.11917063 0.022235833 -0.028611455 -0.15071435 -0.008281052 0.06777391 -0.12662104 -0.26481283 0.04738202 0.24803479 0.049353555 0.10115933 0.078142114 0.06378355 0.09610621 -0.069113076 -0.09535872 0.21768494 -0.23819281 0.35912943 0.35370967 0.094851725 -0.043323323 -0.35257563 -0.3982603 -0.0026717456 0.14264365 0.5427203 -0.081965365 0.44740185 0.11240945 -0.3931428 -0.0683711 -0.1424742 0.00236717 -0.08428685 0.025351766 0.0037548048 -0.09596189 0.27667546 0.049186952 0.13003176 0.016823316 0.07161115 -0.09088996 -0.0064495173 0.24471803 -0.31262287 0.28560293 0.081937976 -0.06927556 0.21209832 0.43851554 0.21506846 -0.17309225 0.24339607 -0.2850106 -0.14122026 -0.11175582 0.0018364949
cid__iso_region 0.33298844 -0.3333425 -0.01519595 0.12809649 0.0041290475 -0.48170137 -0.0135637745 0.06548792 0.014545398 0.12964068 0.50080675 -0.31941724 -0.056012765 0.3001175 0.16499114 -0.069001675 -0.19178443 -0.33077034 -0.03726588 -0.3527767 0.21202326 0.034242425 0.002524441 0.5349744 -0.31286427 0.22180834 0.17286558 0.15265353 -0.037862387 0.11224409 -0.031193634 -0.19307293 0.2996467 0.09716925 0.0179574 -0.043452777 0.16794685 -0.23544712 -0.376432 0.041103404 -0.16807027 -0.38228375 0.19801056 0.07352049 0.15839359 0.7056023 -0.12967403 0.04696564 0.14114638 -0.3276609 0.5175 0.2285936 -0.6313067 -0.1420329 0.33839557 0.047754027 0.18174742 0.14923461 0.036181763 -0.006827104 0.08133327 0.3374759 -0.18967 0.27547327 -0.28636214 0.28206697 -0.29328656 0.41078377 -0.062392604 0.3082348 0.020801058 0.503107 0.030000202 -0.27632934 0.56773883 0.28146383 -0.23288716 -0.056921624 -0.05429081 -0.40950012 -0.0012962893 -0.48536134 -0.12515728 0.35744944 0.07062996 -0.14941472 -0.041601595 0.2940433 0.29348016 0.04169136 0.19651546 -0.24627468 0.06494648 -0.075337574 0.15550573 0.15893957 -0.52002597 0.54403234 -0.14896198 0.2378568 0.23167497 0.090878 0.26762784 0.2509149 -0.48754138 -0.10093155 0.21103841 -0.09760008 0.3538259 -0.13555798 -0.34180665 0.026689349 -0.2768558 -0.016811166 0.14872327 0.014215181 -0.26010683 0.021797422 -0.061266128 -0.15125103 0.20980513 0.3087575 0.22442135 -0.2650359 0.23700827 -0.0003309598 -0.5982946 -0.2931653 0.12637308 0.3326547 -0.04092463 0.3068963 0.014307755 0.07306619 0.10924718 0.25431538 0.32829228 -0.016236795 -0.048385218 0.046367392 -0.23001885 -0.13098092 -0.11163649 0.4164286 0.23640598 -0.16183949 0.08437338 -0.0826209 0.10400255 0.29033867 -0.029014735 -0.34559923 -0.034840737 0.17193381 -0.39745292 0.07022676 -0.19681028 0.24006921 0.1594594 -0.15877144 0.1546178 -0.16755334 0.42677823 0.21001336 0.019221352 0.14675485 -0.18195014 0.13828799 -0.2594386 -0.08213907 -0.12586589 0.36601412 0.030441336 0.076414466 -0.088811025 -0.19900027 0.030991152 -0.38151968 -0.2376797 0.2626346 0.2620973 -0.19458608 -0.13886479 -0.057343975 0.22553845 -0.17756884 -0.0029680678 -0.028082225 0.009518827 0.5610062 0.111815035 0.23720695 0.22832166 -0.2538474 -0.06976832 0.17987603 -0.035409376 -0.10704342 -0.13679342 -0.20633435 -0.053964965 -0.2546497 0.0984586 0.12611137 -0.12595916 -0.10792755 0.15967855 -0.12781224 -0.383434 -0.18096195 -0.19060217 0.09472028 0.087529734 -0.004447548 0.02368713 -0.13838303 -0.102741785 -0.1257613 -0.2220762 0.06598701 0.18769106 0.24758641 0.16722114 0.056844473 0.23599605 -0.06801989 0.25138488 -0.15662028 0.32236454 0.17747162 -0.07546552 0.21420653 -0.10346479 0.14771119 0.048433464 -0.22055607 0.21228214 0.22509229 0.004758534 0.1353898 0.100332 0.11183693 0.15437952 0.20241988 0.26857445 0.09570257 -0.086176954 -0.4605882 0.121466234 0.10349258 0.001078599 -0.007398562 -0.07725941 -0.25022262 -0.047077864 -0.22604518 0.06635611 -0.18568453 0.026901426 0.26936558 -0.036345113 0.21700022 -0.21238363 -0.12112884 -0.11202754 -0.08726714 0.3815998 -0.028192421 -0.46231794 -0.20842947 -0.058417354 -0.17244872 -0.33849645 -0.244365 -0.08277862 -0.09083214 -0.043612562 -0.056435943 -0.5306053 0.034822594 0.118525505 -0.26518264 -0.29977402 -0.14595738 0.06152235 -0.18102963 0.37535903 0.02951699 0.123367704 -0.14551009 -0.21764135 0.35691753 0.37724027 -0.06044821 0.12617518 0.33572128 0.029286029 -0.31062484 -0.14708436 0.03173628
tt__AS -0.075995915 0.36047265 -0.37699753 -0.0737524 -0.30517453 -0.21035951 -0.031727616 0.24451533 -0.21062404 0.104727894 0.42347246 0.09129031 0.011958562 0.18435393 0.29488653 -0.2419458 0.21434848 -0.07660753 0.17331713 -0.45901 -0.109212495 -0.17416628 -0.089736514 -0.03079935 -0.24682629 -0.022113353 0.20790744 0.038465105 -0.21244003 -0.27395824 -0.23251684 -0.17684552 0.28962234 -0.012526178 0.14906408 -0.09008596 0.32481024 0.026850576 -0.073950104 -0.06441168 -0.16215028 -0.37316963 0.41262716 0.1620184 0.26373404 0.17770123 0.030128608 0.06749014 -0.05679614 0.48104915 -0.06958378 0.42426816 -0.56643546 -0.0024784254 -0.074358135 0.19628109 0.22538093 -0.05662519 0.0016776001 -0.09507869 -0.09429374 0.14663963 -0.22665915 0.15408199 -0.33052382 0.19873881 0.065418765 0.4464277 -0.62397885 0.15308489 -0.1557188 -0.03617859 0.28411406 0.12051256 0.44588625 0.17848684 -0.47930598 0.073857814 -0.013540013 -0.05809933 -0.3651442 -0.05320537 -0.5586281 0.3853806 -0.10891968 -0.07716419 0.1340378 0.01192223 0.3608451 0.27861616 -0.20444527 -0.69989127 -0.03275838 -0.009411638 -0.094895475 0.40659547 -0.11964009 0.3713717 -0.15819155 0.1360291 -0.18864208 -0.21608314 -0.015764533 0.02019625 -0.09412714 -0.40437013 -0.046708267 0.33370006 0.20698366 -0.17670742 0.14863597 -0.053275965 -0.22588688 0.16454886 0.4557315 0.026966764 0.20807299 0.06702914 -0.05077122 -0.2878091 0.047447976 -0.20268986 -0.0131412465 -0.01805017 0.43560067 0.06132347 -0.3238295 -0.084360905 0.17777821 0.0010778501 -0.13600138 0.33985773 -0.002068744 -0.110933974 -0.24346162 -0.0706681 -0.019882772 -0.3950904 -0.15862893 0.015179209 0.1199525 -0.06293657 -0.22821227 0.03972534 0.018161336 -0.049750872 -0.28395534 -0.15311539 -0.13867548 0.24962553 -0.013989383 -0.37623733 0.114930466 -0.11613413 0.04524239 -0.05330809 -0.17177132 -0.2160452 0.3254139 0.42322832 0.12935215 0.10298147 -0.1293623 0.067187585 0.15117629 0.45944798 -0.21876583 0.15011056 0.3183694 0.059998102 -0.07808663 0.06939288 0.21304314 0.04070387 0.06591706 -0.43111604 -0.008643374 -0.011343107 -0.117198296 -0.19395587 0.097045206 -0.021736193 0.17720647 -0.09146552 0.1889582 0.20301811 -0.029068867 0.3246622 0.14117846 0.057705842 0.28009084 -0.053893507 0.14238688 -0.12586334 -0.11418662 0.38249692 -0.1342637 -0.18074226 -0.109118514 -0.034602247 0.22396576 0.05635534 0.12240898 0.3358643 -0.2920619 -0.2551766 -0.1328363 -0.17199914 -0.019209981 -0.12920004 -0.032048766 0.0393717 0.13465938 0.32708368 -0.120179586 0.10065123 -0.12145634 0.31041133 -0.12748995 0.20294413 -0.40783846 -0.24753691 -0.220085 0.12515281 0.0051806797 0.312897 0.09221854 0.48063087 0.22303493 -0.043980714 -0.46269256 0.11068769 -0.22462362 0.09299727 0.019379644 -0.0061342632 0.16877343 -0.02010565 0.04687625 -0.22003233 -0.09554034 0.062280275 0.33142725 0.028487908 -0.12829065 -0.085296236 0.092198074 0.060656134 0.11445618 0.28543302 -0.11325096 0.28006887 -0.0540461 0.11784972 0.07426668 -0.3435063 -0.044221982 -0.0997415 -0.13213076 -0.046120495 0.33071318 0.27243525 -0.07913398 0.058348652 -0.2886874 -0.104508035 0.26635793 0.23765853 -0.021637408 0.03606054 0.15309303 -0.23290163 0.05997812 0.16958204 0.5421024 -0.005089888 -0.07104228 -0.01932076 -0.339388 -0.11518098 0.11733886 0.10292445 0.08258737 -0.16054738 0.19496599 -0.3740109 0.15903708 -0.016071985 -0.16950278 0.055404585 -0.36201727 0.42569283 0.2839047 0.29287386 -0.13765474 -0.037235774 0.041190278 -0.117235295 -0.33526087 -0.079813376
tt__BR -0.22780858 0.1274495 -0.14112704 -0.13513121 -0.15724307 -0.44730642 0.2008618 0.9392494 -0.14119217 -0.2493596 -0.10171905 0.21401769 0.11114518 0.05121127 0.20881106 -0.169583 0.5369706 -0.011303486 0.14945543 -0.25389498 -0.14604881 -0.11268664 -0.29156998 0.13022736 -0.32173768 -0.18070188 -0.3617727 0.2410826 0.16682193 -0.24426743 -0.025423791 -0.07622906 -0.04374943 0.007936719 0.3327128 0.055394296 0.009513879 -0.6807748 -0.27254984 -0.0014797475 -0.07079081 0.29855362 0.28214943 0.0323182 0.29561833 0.14574018 -0.017871581 -0.010828181 -0.3817979 -0.12740792 0.30335552 -0.1365809 0.10881332 0.051921528 -0.06159268 -0.17382506 -0.2694282 0.2534962 0.088065006 0.2558301 0.26445487 0.11520711 0.0543575 -0.07662601 0.24088043 0.32235518 0.42665833 0.28014284 -0.3445029 0.098324895 -0.009039649 -0.12907939 -0.012501219 -0.18496652 0.24075186 0.16911672 -0.06396483 -0.12194597 -0.044685565 -0.10631723 -0.2769372 0.08368578 -0.32450637 0.21410687 0.07250146 -0.44411585 0.022309065 -0.020467632 -0.18031307 0.13183823 0.21163994 -0.5197316 0.06483694 -0.044422615 -0.10080754 -0.111073 0.28869668 0.07790244 0.057816856 0.010525891 -0.08947962 0.30884767 -0.13158865 0.37445822 -0.2729674 -0.32351035 0.10206762 -0.011003794 -0.100533865 -0.2153803 -0.06484099 0.10068689 -0.032527685 0.04638647 -0.0889811 0.31327468 0.017423296 0.14709325 -0.078333244 -0.12601447 -0.2890248 0.03813155 -0.19301312 -0.026327074 -0.18585958 -0.0068243095 -0.027456027 -0.46722406 0.09118733 -0.15924078 0.07039045 0.03281508 0.098265834 -0.28788954 0.21810967 0.02874593 -0.081270315 0.13565168 -0.25974923 0.02161453 0.039988004 0.036100473 -0.16987564 0.20922145 0.18585956 -0.044947498 -0.33596674 0.2649067 0.19883437 -0.0645201 -0.029112197 -0.22551113 0.25093696 0.2318512 0.024102775 0.028487489 0.23516259 0.14979056 -0.3822537 0.09943136 -0.035013296 0.15177737 0.29965243 0.122325785 0.13146666 0.28880572 0.13357593 0.04708064 0.0037479412 0.06496454 -0.34579438 -0.07485187 0.10808128 -0.054873094 -0.11388516 0.11556395 -0.030132327 0.10410443 -0.033704545 -0.25865528 -0.117265426 0.29450473 -0.17354958 -0.36181393 -0.17581688 -0.11868217 -0.042987946 0.06305863 -0.0073422343 0.15331969 -0.318353 -0.020276904 -0.19327538 0.24864316 -0.1563344 0.10433329 -0.17161743 -0.106487684 0.228524 0.28467703 -0.25524744 0.057392433 0.34200752 0.06298415 -0.073302984 0.0071807574 0.18639205 0.11916798 -0.09386682 0.20180932 0.0784157 -0.27950063 -0.04674229 0.020698579 -0.0734425 -0.16970627 -0.2131638 0.009806721 -0.0061903074 -0.12976356 0.38006613 0.119422965 -0.14061804 0.124551184 0.021951504 0.028080102 -0.33648214 -0.2798615 -0.2226731 -0.4016414 0.024040582 -0.10083942 -0.11764928 -0.14759083 -0.0514045 0.08161606 0.05817289 0.16156407 -0.4898793 0.20711933 0.30664486 -0.057218254 -0.12148442 0.09205583 -0.036403287 -0.04479226 0.11805785 0.103378326 -0.08528358 -0.13651283 0.041180063 0.062015455 0.027051413 -0.15396236 0.27135462 -0.19176029 -0.0025412396 -0.1785538 -0.5448361 -0.20583218 -0.33957565 0.20267147 -0.07031776 -0.4395142 0.38207066 0.16340558 -0.06934641 0.042170394 -0.066826314 -0.31470734 0.03109087 0.16702498 -0.0050112116 -0.065674484 0.075822264 -0.06868654 -0.20636852 0.085297786 -0.08117972 0.12130568 0.029626591 -0.14324683 -0.060497254 0.23928656 -0.06819445 0.10944883 -0.4431373 -0.04378956 0.06710109 0.23360077 0.0739164 0.35097605 -0.085199304 -0.19925272 0.20715071 -0.038803183 -0.3704769 -0.16230792 -0.17020835 0.14124432
tt__medium 0.4477726 0.006719848 -0.02292611 -0.03773786 0.1380899 -0.37110013 0.22596805 -0.10277275 -0.066141754 -0.11406231 0.1716615 -0.057914007 0.1747871 -0.1038633 -0.0744904 0.14346407 -0.1368667 -0.025952458 -0.56822324 -0.3060738 -0.006346563 -0.006093947 -0.36339864 0.08980115 -0.3008198 0.04957841 -0.26591477 0.3438 0.124598384 -0.22816625 -0.27344134 0.1054479 0.13671583 -0.06434481 0.01094656 0.055956475 0.11021364 -0.17050347 0.119421296 -0.19134548 -0.039368477 -0.36512908 0.3679566 0.0041574575 0.3208671 -0.10980505 -0.07709758 -0.07542842 0.050882105 -0.07848988 0.14386027 0.076445624 -0.13465935 -0.15887238 -0.058889974 0.024664091 -0.020587096 -0.03221184 -0.12850118 0.3538126 -0.11726986 -0.049220294 -0.15045482 0.298842 0.26048377 0.15626183 0.20344654 0.28310826 -0.23870888 0.037247166 0.06338678 0.25412 -0.118845426 0.48955593 0.4400659 0.03503919 -0.27956638 -0.17588106 0.001602293 0.031134259 0.14537385 -0.107336715 -0.23770894 0.0425399 0.067010425 0.07594622 0.05778771 0.17291379 0.4015309 0.29167232 0.27580342 -0.5431522 -0.124452755 0.0039634584 -0.08268397 0.40751615 -0.27938095 -0.14384815 0.16875714 0.0699599 0.13038984 0.014961626 0.29130846 0.24447823 -0.39880255 -0.23026945 -0.08684418 0.2757554 0.27096927 -0.07443857 -0.65285426 -0.42221925 -0.42771652 0.4691242 0.270415 0.014887966 0.20804754 0.2900177 -0.21098852 -0.083649576 0.17160907 0.28549066 0.46523613 0.032103177 0.14024414 -0.04937081 -0.53592205 -0.46673027 -0.0206236 0.2750126 0.06072771 0.06816232 0.24386254 -0.53827775 -0.1760399 0.27651033 -0.040643457 -0.2161061 0.14484075 -0.2288802 0.15872908 0.10365677 0.25301084 0.35077557 -0.093977705 0.023062253 0.2087995 -0.28345624 0.111237004 0.21514887 -0.109371476 -0.119358696 -0.20163587 -0.051448535 -0.07206321 -0.5227702 0.09069588 0.31513932 -0.30861613 -0.37138656 -0.32232738 0.06713351 -0.40603524 0.27268264 0.22283328 0.006708432 -0.47895968 -0.062583774 0.083134666 -0.3581157 -0.06303155 0.203371 0.30898413 -0.5324957 0.034402538 0.07961978 0.13853958 -0.0008939402 -0.35203522 -0.17560688 0.043248504 -0.10916312 -0.02456695 -0.27324867 -0.0488036 -0.11550436 0.12460283 0.35213408 0.048045892 0.07922978 -0.14437787 0.062032644 -0.08258027 -0.0037469266 0.33363524 0.036641084 0.010045317 0.18340394 -0.17140603 0.0064246017 -0.18006368 -0.10028575 0.1181622 0.39090276 -0.08467584 0.05211207 0.089224845 0.17776676 -0.081230894 0.10646501 -0.028027413 0.3283807 0.067574516 0.27815586 -0.060348175 -0.09758968 0.08656103 0.11308278 0.062840424 0.07972971 0.030476464 0.12029127 0.14461128 -0.08370024 0.09469097 -0.12597084 0.20637634 0.111079276 -0.19630173 0.24068819 0.2267995 -0.23073852 0.30131507 -0.44474378 0.07720656 0.23553249 0.10254556 -0.15277515 -0.049877368 -0.059880517 0.059971306 -0.043705113 0.14762916 0.053447995 -0.20860589 0.17443651 0.18985717 -0.38549504 0.14267142 0.34925815 -0.2383238 0.0628627 -0.024910325 0.24833319 0.3837608 -0.04131637 -0.004729348 0.16281296 -0.01331654 0.5124492 0.411143 0.19939366 -0.23885922 -0.02726018 -0.29489866 0.22404893 -0.104372814 0.22647497 -0.30799833 0.1599877 0.34817523 -0.31942177 -0.048374634 0.023920478 0.073998906 0.29665926 -0.19572867 -0.049324915 0.09796486 0.19174306 0.4988444 -0.047876086 0.12174339 -0.16471231 0.13295583 -0.32917115 -0.107033536 -0.034001913 0.1609752 0.22872038 -0.02222811 -0.03128377 0.033338793 0.118434705 0.15692523 0.40739647 -0.3591724 -0.5540738 0.3172775 -0.040593646
tt__closed -0.25130284 -0.28070033 -0.075559564 0.22937323 0.14348394 -0.3252941 0.078643546 0.33269724 -0.024472445 -0.08929265 0.16604102 0.2530844 -0.3669059 -0.019379782 0.0021030016 -0.21464533 0.12531076 0.13197005 0.19701913 0.24138051 0.337259 -0.5145192 -0.35944617 0.34962136 0.27494457 0.16753662 -0.17963809 0.13078718 0.014319328 -0.12948875 0.10217079 0.03906146 -0.085302696 -0.718038 -0.0025761642 0.13730434 0.3547334 -0.47856647 -0.023863966 0.25870007 -0.3023504 -0.055012573 0.32558563 -0.015297488 0.26204196 0.04499122 -0.36912987 0.26180938 0.44598603 -0.067870595 0.090133764 0.21280022 -0.37517652 0.018190892 -0.12004213 -0.38319108 0.37097886 0.11775656 0.110845685 0.07634059 0.05434677 0.17198397 0.47315216 -0.24313554 -0.33287227 0.0049236426 -0.040445335 0.036392156 -0.4874728 -0.19577892 0.14066273 0.2961848 -0.2204813 -0.49026912 0.3564401 -0.4046793 -0.41065678 0.3364301 -0.32789055 -0.39383093 0.08599768 0.088605374 -0.19955927 0.32252887 0.13166538 -0.13701496 0.010309489 -0.20534748 -0.07751648 0.14360696 -0.32385567 -0.12724885 0.15032375 -0.20291488 0.23714238 0.24297303 -0.39742756 0.06308085 0.18332331 -0.33691138 -0.21550158 -0.037305538 0.27419394 -0.29070643 0.1639331 -0.022797788 0.0055572568 -0.1698265 -0.3031815 -0.021940593 -0.03887894 -0.42777762 0.20543012 -0.13786326 0.29291475 -0.08425728 0.06374505 -0.09182847 0.21740076 -0.10830526 0.19856925 -0.23204572 0.42065972 0.4452484 -0.054955002 -0.37312266 0.02159546 -0.06610382 0.38451207 0.022348823 0.31907168 0.32344106 0.30050415 -0.037925087 -0.07293625 0.30571797 0.41619816 -0.2897385 -0.034705903 0.027659923 -0.0232251 0.04056673 -0.049259096 0.22795779 0.15476353 -0.2867576 -0.39644057 0.17135562 -0.01813142 -0.2470216 -0.28465497 -0.3326283 -0.19563122 0.094762914 -0.0691324 -0.1717828 -0.37342742 -0.3181657 0.3126202 0.22230977 0.19168913 0.1787315 -0.07072435 0.4160756 -0.12373397 0.016068008 0.2968648 0.026970677 -0.19731645 -0.1628986 -0.27797353 0.4734779 -0.0070081153 0.26101738 -0.25221497 0.10200342 -0.19666332 0.084227555 -0.34014243 0.15671794 0.4995901 -0.36702707 0.27743894 0.0060939845 -0.20456938 0.30126524 0.136525 -0.14276335 0.12433873 -0.21439093 0.099399686 -0.09676538 -0.13406856 0.14930259 0.33072174 0.060488373 0.15420282 0.012800814 -0.15319282 -0.07411808 0.03663458 -0.23876615 0.1982028 0.2728929 0.24328302 -0.08151006 0.10843539 0.2428627 0.06879092 0.15402809 0.035414156 -0.1030755 -0.072275825 -0.1577473 -0.11304266 0.012764549 0.03982185 -0.18722832 0.080860704 0.49581957 0.30073476 0.27931967 -0.015904443 -0.1939545 0.011293632 0.05732601 0.157088 0.21342763 0.39290836 -0.13284798 0.13046418 0.058541026 0.10047681 0.3187527 -0.23680635 0.21127523 -0.20567003 -0.1616812 -0.17995901 0.24939747 -0.020747917 0.25872287 -0.11309003 -0.12903512 0.2168467 -0.38103122 -0.19167109 -0.22180665 0.15973401 0.09393847 -0.25128403 0.19191073 0.063498296 0.36531574 0.010670183 0.0814638 0.50852776 0.17037317 0.1109965 0.04817721 -0.14006385 -0.10887754 0.054016642 -0.2689354 -0.09466328 0.35334694 -0.24705762 -0.079422146 -0.10098649 -0.09757575 -0.33620036 -0.0030097447 -0.20004252 0.25488728 -0.088702954 0.36629224 0.12361023 -0.2751272 -0.29854864 -0.006447172 0.16312325 0.30084303 0.34840238 0.17174941 -0.27025318 0.0073618083 0.24279381 0.15850158 0.28032038 0.19464493 -0.10116902 0.28152028 0.34055325 -0.07101199 0.31155464 0.008230909 -0.34472933 0.29460138 -0.1055259 -0.2950951
tt__yes -0.21787004 0.13448837 -0.2664027 -0.14532074 -0.062274873 -0.18704593 -0.17159252 0.093152165 -0.11766161 -0.0041390527 0.29636222 -0.3024771 0.12040859 0.10088292 -0.17683065 -0.09613518 -0.020889172 -0.24611555 -0.07765568 0.22503026 0.1474964 -0.36828387 -0.3622817 0.09085774 -0.17266399 -0.07044578 -0.047681697 -0.0012254801 -0.00406862 -0.40146154 -0.32602644 -0.19298723 0.019883517 -0.23632371 0.037029237 -0.04157993 0.069390535 -0.2362716 0.059098613 -0.29783997 -0.047522917 -0.16002992 0.21533057 -0.18802223 0.08594397 0.16492844 -0.17873299 -0.12769102 -0.016449234 0.09261219 -0.14764959 -0.038201965 -0.2560066 -0.16022865 -0.0399329 0.08874244 0.035968754 0.5185511 -0.12815127 -0.07272224 0.095224544 -0.2767168 -0.20836008 -0.07080645 0.3638639 0.04220377 0.37602276 0.33818752 -0.22784153 0.111336626 0.5259945 0.24807893 0.26388767 0.21189435 0.5072736 0.03334825 -0.3419639 -0.08784948 -0.0845891 0.13053174 -0.032224253 -0.2912747 -0.46151987 -0.1477964 0.25872263 0.010889363 0.19535558 -0.32841876 -0.033262696 0.11231673 -0.060080044 -0.2630627 0.14262247 -0.16980675 0.13969597 0.0425992 0.17057794 0.0698522 0.09569439 0.13742055 -0.061199352 0.23826554 0.383014 0.15421313 -0.3712792 0.25018108 -0.16060086 0.28624907 0.19148934 -0.095309496 -0.5617685 -0.08562888 -0.39120486 0.27229497 0.38370585 0.21495908 0.02642645 0.16272922 0.12132969 -0.19167438 -0.05341611 0.15750854 0.2270053 -0.46587893 -0.19567266 0.111102946 -0.41539335 -0.36002502 0.07789098 0.5579005 0.23799989 0.62834275 0.10073074 -0.34468582 -0.0073932623 0.093821675 0.16237663 -0.4749372 0.26839188 0.12418926 0.082801245 -0.1437219 -0.25110996 0.29298416 0.02181336 0.009191615 -0.016924918 -0.4016834 0.057858765 0.11106925 -0.133963 0.052920908 0.03956782 -0.051731527 0.28948832 0.13845655 0.10581474 -0.0053189886 -0.008067653 -0.24125266 -0.009948466 -0.06500587 0.14268921 0.03858128 0.35282034 0.13740145 -0.38945347 0.26659703 -0.061915196 -0.013519551 -0.27472192 -0.09890148 -0.10213979 -0.50085527 0.14255121 -0.30192637 -0.030004261 -0.11398444 -0.45355347 -0.017462993 -0.0424347 -0.1714577 -0.13395487 -0.38825426 0.1666044 -0.19498931 0.03802881 -0.040310334 0.046873257 -0.041827872 -0.18447705 -0.19110374 -0.070635155 -0.17203444 0.09048003 0.17217737 -0.19455282 0.40950733 -0.49850503 -0.37758976 0.26758793 0.16821392 -0.12577693 0.09318697 -0.3995887 0.31641924 0.24066556 -0.13652907 -0.26068202 -0.025223954 0.15953769 0.42339975 -0.17576101 -0.061777275 0.07118981 -0.31732017 -0.11755876 -0.2518038 -0.28751945 0.0714946 0.27799574 0.0398109 0.18304777 0.067800745 0.00017599779 -0.15441962 0.31356046 -0.43360227 0.2470019 -0.11289259 0.46372485 0.2417698 -0.035268843 -0.10394961 -0.10733876 -0.16882269 -0.014783936 0.029382678 0.025017852 -0.033578902 0.22800116 -0.23687077 0.24089052 -0.04967881 0.099421956 -0.034378875 -0.27657667 -0.042514905 -0.13743253 0.15168671 -0.39147338 0.08427797 -0.01130981 0.0391148 0.4423907 -0.16627386 -0.29232284 -0.11717839 -0.04021526 0.10433823 0.5066922 -0.07545397 -0.05747186 0.14175801 0.03270027 -0.36575884 0.101218104 0.17147863 -0.23600128 0.049263738 0.24318333 -0.42019165 -0.051726807 -0.23563659 0.077517584 0.37553257 -0.1687158 0.1519486 -0.023261035 0.005080842 -0.061351277 0.12810197 0.025536172 -0.15909289 -0.15854801 0.18299901 -0.009888655 -0.2732908 0.24552059 -0.048368897 -0.10097165 0.11828538 0.48063987 0.13156961 0.06256672 0.06638549 -0.14262794 -0.09215447 -0.22558768 0.17646508
cid__home_link -0.0018753947 0.47813767 0.31314546 -0.44981435 0.6830718 -0.5051233 0.39133543 0.4490893 0.27623728 -0.0036163917 0.5397126 -0.57235485 -0.36911654 0.19743717 -0.39445525 0.09626987 -0.058641616 0.042385098 -0.29541326 -0.542986 -0.31968305 -0.27067256 0.10495882 0.34682587 -0.3371649 0.5491819 -0.30719575 -0.21582112 -0.09215524 0.16699772 0.19987215 -0.3344965 0.28025392 -0.65166134 0.22243473 0.1094931 0.45858878 -0.4188358 0.2636514 -0.050408315 -0.22559974 0.37673953 -0.034842156 -0.13787207 0.27491468 0.07209844 0.6365026 0.051040832 0.4949514 -0.38674197 0.11074298 -0.7608859 -0.6903715 0.2796716 -0.1467016 0.18936309 0.23621903 0.2256203 0.014543456 -0.111910954 0.15760526 -0.6460664 0.5027569 0.61370915 0.6925913 0.34013152 0.3730405 -0.12716508 -0.44574544 0.3752817 -0.21107893 0.507325 0.24693994 -0.22454703 0.4473749 0.62100804 -0.6897088 -0.1123952 0.005527254 -0.15845902 0.30525398 0.18834306 -0.5840215 0.10510993 0.33376145 -0.2355871 -0.104282655 -0.14333591 0.19662163 0.5398471 0.30861303 -0.13119785 0.43356565 0.08182593 0.57654434 -0.106986694 -0.19760707 -0.012448568 -0.1634363 0.09167656 -0.037497614 0.2139008 -0.14124595 -0.17056146 0.24372934 0.25904837 -0.09210099 -0.2256836 0.48178354 -0.037910886 -0.4380517 -0.68870157 0.12045139 0.33875993 0.16181079 0.39546952 -0.09862857 0.14362738 0.40756056 -0.28255188 -0.18486822 0.07873644 0.38880762 -0.3070069 -0.47896063 0.4470101 0.021911154 -0.35012233 -0.003077874 0.084109366 0.15305947 0.28790462 0.27158058 0.015582439 -0.4155416 0.3739655 -0.13291804 -0.5952175 0.13385908 0.040310826 0.39272505 -0.3509457 0.13272744 -0.12866087 0.11667333 -0.104124196 -0.28020933 -0.1744336 -0.16053413 -0.081246115 0.27759305 -0.28552556 0.075221 -0.11894657 0.027129913 0.027908487 0.17483623 0.22962745 -0.15544164 -0.12757842 0.4120411 0.44407538 -0.42206207 0.3073075 0.2970015 0.030438151 0.020970194 0.040027536 -0.31908754 -0.19236441 0.063409925 0.2522415 -0.049210954 0.043178253 0.49852124 0.27433196 -0.13713177 -0.389288 -0.045996558 -0.10325349 0.07596436 -0.2350051 -0.34548354 0.17995074 0.10413205 -0.19960156 0.23333085 0.17783807 0.46541148 0.16997734 0.1966203 -0.07230713 -0.018226596 0.03642871 -0.082515486 0.0711643 -0.21515961 0.064197026 0.07557845 0.039665844 0.043515656 0.012615724 -0.32543597 -0.1532191 0.12293391 0.2723382 -0.47415578 0.4180104 -0.2900569 -0.08948319 -0.25991896 -0.2870808 0.008799314 0.37501872 -0.09131812 -0.10986703 -0.18838665 -0.004807911 0.21020155 -0.013641997 0.016510498 0.06579512 -0.38196918 0.05594731 0.1759197 0.23260301 0.3347285 -0.31612092 -0.20721275 -0.026994832 0.091850385 -0.18886563 0.13897546 0.32423386 0.4068607 -0.09284816 0.2613599 -0.23954843 0.078972496 0.36571056 0.34494182 0.28234884 -0.020745933 -0.3307274 -0.3156907 -0.39062765 0.3969724 0.056977615 0.32852998 0.20083769 -0.066969976 -0.1322203 0.4017813 0.03091758 0.110117845 0.088073246 -0.09715523 0.10657393 0.018642124 -0.3105095 0.04066832 0.13254032 -0.031908453 -0.086829886 -0.38828927 -0.28311253 -0.24351744 0.5243397 -0.27354193 0.095189415 -0.09098474 0.017587243 -0.2223921 -0.32661164 -0.6112753 0.25059482 -0.20990573 0.34787902 -0.13829508 -0.070872165 0.082995504 0.119674936 -0.3096673 -0.101999484 -0.032357253 -0.4353711 0.44951552 -0.40694955 -0.34555942 0.29576457 0.21382146 0.10099221 -0.101134926 0.33095828 0.23573989 0.1422278 -0.33893675 -0.45357075 -0.11245444 -0.1513683
tt__AF -0.1399985 0.30353925 -0.03496444 0.12850894 0.081031226 -0.4904003 0.046888474 0.639053 0.33810583 0.17601825 0.04506429 -0.17058271 -0.10035739 0.38214585 0.2617752 -0.09657614 -0.026923463 0.13018982 -0.062308032 -0.113671 -0.1546207 0.1006481 -0.1897015 0.4776591 -0.16056532 0.34360912 -0.49488875 0.20109767 -0.12996629 -0.47310454 0.064519405 -0.12657127 0.2504773 0.044433035 0.10273742 -0.13537581 0.27037984 -0.062350746 0.050382596 -0.08572394 -0.20900653 -0.041956343 0.08046201 0.26325518 -0.4528313 0.30387807 0.15556748 0.3004054 0.09338494 0.1807402 -0.01358007 0.085738786 -0.26463977 -0.37636515 0.01836913 0.01933045 0.19570333 0.71462125 0.22285922 -0.14445674 0.33766025 -0.096100956 -0.03436785 0.04966561 -0.2836001 0.037903026 -0.2136328 0.2960281 0.38482827 0.35501814 -0.25396493 0.23075037 0.11196373 0.016432816 0.25913605 0.19660416 0.10599223 -0.18222536 -0.14583066 0.1491798 0.15272415 0.16208987 -0.036543064 -0.022407413 -0.13496512 0.34607205 -0.23797207 -0.026566377 0.050323643 0.098931134 0.10651646 -0.1932277 -0.17891003 0.22412783 -0.06992951 0.17143843 0.11304606 0.49460372 -0.2064795 -0.23892646 0.22674848 -0.061427463 0.052408956 0.019880204 -0.029270764 0.0010295126 0.13724661 0.15184557 -0.0099901715 -0.013484466 -0.4095332 -0.04929498 0.081247024 0.34263164 0.28393453 -0.3094871 -0.053005777 0.21622126 -0.025088735 0.33727592 -0.11221527 -0.07188513 -0.35436222 0.22472201 0.1340107 -0.14082506 -0.35815477 -0.18805745 0.079880424 -0.05561584 -0.15934198 0.3978547 -0.24738528 -0.022844043 0.15592034 0.29742196 0.2655115 0.09377309 0.2358111 0.28147116 -0.1353183 0.048238203 0.029572407 0.25123033 0.024265015 -0.23075244 0.16717854 0.0852895 0.37719786 0.14191161 0.12859544 -0.3836869 -0.054348644 -0.0791529 -0.19487153 0.033166748 -0.45587435 0.1357975 0.24029273 0.2786759 -0.2738538 0.1939369 0.09417703 0.40766937 -0.034714874 -0.22330883 -0.059498135 0.4154599 -0.10674783 0.0478883 -0.1227126 0.4437733 -0.08025712 -0.4875617 -0.4119291 0.053475216 0.23492959 -0.20658632 -0.15583135 0.13542254 -0.14543924 0.31566063 -0.16177768 -0.34721974 0.17888512 -0.22432186 0.3499374 0.24839248 0.034761354 -0.038270578 0.23717734 0.07668878 -0.24082568 0.23179165 -0.014313862 -0.00058970915 0.0071217064 0.42664513 0.016919939 0.11501201 -0.23139572 -0.028020041 0.031448156 -0.11620973 0.2187445 0.21868536 0.46332854 0.068862684 -0.18183348 -0.014033611 -0.0092169065 -0.6248823 0.08058685 -0.00233223 -0.10197426 -0.14509095 -0.10122805 -0.43464798 -0.3766032 -0.43019304 0.3049605 0.28926268 -0.06918774 0.023117427 0.21149574 -0.23420031 0.16562177 -0.3233004 0.015628416 -0.28702545 -0.0015922873 -0.012422882 0.0010118138 -0.15373033 -0.16216826 0.042128343 -0.14671387 0.1662368 0.034530915 -0.18108813 0.043079752 0.28365332 0.10038027 0.14232391 -0.35747507 0.0963333 -0.05084704 -0.047106296 0.04550116 0.027644835 -0.09130567 0.23897095 -0.051568687 -0.019883556 0.17052118 0.08993536 -0.31402168 0.41482404 -0.08250558 0.06163414 -0.2559107 0.090555094 -0.042024083 0.02192712 -0.31318536 -0.07093742 0.13401927 0.3257635 -0.07268072 -0.37992632 0.02972085 0.028465757 -0.16226088 0.08320609 0.23135954 -0.15774907 -0.10175173 0.33482862 -0.350746 0.057777073 -0.12686746 -0.08245423 -0.34749413 -0.0071341214 -0.19279388 -0.0069609266 0.56881624 0.14399762 0.06741456 -0.046965107 0.09976479 0.18589373 0.09574561 -0.26761046 0.3004574 0.39500782 0.24345143 -0.12055136 0.11521644 0.21411882
